tree
version=v4
num_class=1
num_tree_per_iteration=1
label_index=0
max_feature_idx=11
objective=binary sigmoid:1
feature_names=hour minute weekday is_weekend is_peak_am is_peak_pm stop_sequence frac_of_trip upstream_delay_sec route_family route_id direction_id
feature_infos=[18:21] [0:59] none none none [0:1] [1:79] [0.012658227848101266:1] [-1231:1626] -1:3:2:0:6:4:5:1 -1:25:30:32:29:26:28:27:31:8:18:14:5:4:2:13:16:15:19:33:24:0:20:12:17:23:7:6:1:22:10:9:21:3 -1:0:1
tree_sizes=2964 6634 4480 4156 6618 5019 4392 4469 4498 4267 4483 4361 6657 5119 4472 4995 4060 4063 6677 6687 4191 4163 4303 4470 6663 4482 4293 5136 4281 4786 6662 4292 6724 4841 5217 5807 4696 5118 4809 6678 5253 6656 4488 6640 4270 6683 6722 4623 4596 4528 6723 4714 4930 4632 6669 4476 5140 4491 5550 4595 6691 6743 6004 4585 4734 6721 6749 6740 6102 5481 6088 6005 6305 5338 5450 6773 6773 5146 6257 5268 5270 6729 5283 5572 5371 5606 5600 5487 5718 5514 5399 5736 5800 5642 5918 5399 5919 6666 6566 5750 5627 5819 5830 6904 5438 6857 5560 5663 5534 6153 5836 6172 6291 5647 5748 6162 6862 6498 5730 5435 6160 6165 6164 5196 6215 5963 6918 6818

Tree=0
num_leaves=27
num_cat=1
split_feature=8 8 0 6 1 8 8 6 1 0 8 11 6 8 1 1 1 1 8 6 1 0 1 6 1 6
split_gain=3993.54 904.917 191.183 88.676 15.282 6.63318 6.77993 4.20693 2.22272 4.30135 8.94826 1.8858 1.36193 0.560278 1.45562 0.52686 0.199261 0.096594 0.0414664 0.106908 0.0276006 0.00892718 0.0180258 4.54747e-13 2.27374e-13 1.42109e-14
threshold=295.50000000000006 -43.499999999999993 18.500000000000004 1.5000000000000002 25.500000000000004 228.50000000000003 274.00000000000006 12.500000000000002 7.5000000000000009 19.500000000000004 1.0000000180025095e-35 0 39.500000000000007 178.50000000000003 38.500000000000007 39.500000000000007 1.0000000180025095e-35 12.500000000000002 350.50000000000006 42.500000000000007 9.5000000000000018 19.500000000000004 15.500000000000002 40.500000000000007 56.500000000000007 30.500000000000004
decision_type=2 2 2 2 2 2 2 2 2 2 2 1 2 2 2 2 2 2 2 2 2 2 2 2 2 2
left_child=1 7 -3 4 11 8 -7 -1 9 10 -5 -4 -8 23 -15 -6 -2 -9 19 20 -18 24 -23 -10 -20 -26
right_child=16 2 3 5 15 6 12 17 13 -11 -12 -13 -14 14 -16 -17 18 -19 21 -21 -22 22 -24 -25 25 -27
leaf_value=-0.06027174706784761 -0.093989259736597497 -0.09538739045709646 -0.012419325103123026 0.047497105192597831 0.042509016783327684 0.010690498568620716 0.099999963298332425 -0.09516233679444526 0.099999963298332398 0.099999963298332398 0.095686103944227982 -0.04727000495020052 0.059726861596588902 0.099999963298332425 0.059726861596588902 0.067770479528357727 -0.097424367585178778 -0.10000003670166761 -0.10000003670166761 -0.095719296231898801 -0.10000003670166761 -0.10000003670166761 -0.097771681893340637 0.099999963298332398 -0.10000003670166759 -0.10000003670166761
leaf_weight=7.8525958955287924 15.570543006062506 13.526734441518782 7.8365936577320117 14.382633864879606 4.3782510161399824 4.2275999933481208 6.395389184355734 12.897459954023359 442.52973453700542 66.293668374419212 29.174548164010048 7.6912767142057419 3.1250361204147339 7.9552402049303037 3.1250361204147339 3.9049616307020187 12.11220036447048 51.600507974624634 387.00380980968475 21.863287881016731 73.625115036964417 25.800253987312317 14.000023826956747 95.930837765336037 16.361136674880985 12.585489749908445
leaf_count=20 27 23 29 74 22 18 41 22 2837 425 184 22 17 51 17 22 20 82 615 37 117 41 23 615 26 20
internal_value=-3.85368e-08 0.0736338 0.0907886 0.094402 -0.000425668 0.0977564 0.0633824 -0.0948257 0.098473 0.0919801 0.079774 -0.0296816 0.0867805 0.0997709 0.0886415 0.054418 -0.0995689 -0.0990327 -0.0997231 -0.0988403 -0.0996362 -0.0999316 -0.0992162 0.1 -0.1 -0.1
internal_weight=1361.75 782.828 710.478 696.951 23.8111 673.14 13.748 72.3506 659.392 109.851 43.5572 15.5279 9.52043 549.541 11.0803 8.28321 578.922 64.498 563.351 107.601 85.7373 455.751 39.8003 538.461 415.95 28.9466
internal_count=5447 4521 4397 4374 95 4279 76 124 4203 683 258 51 58 3520 68 44 926 104 899 174 137 725 64 3452 661 46
cat_boundaries=0 1
cat_threshold=1
is_linear=0
shrinkage=1


Tree=1
num_leaves=63
num_cat=12
split_feature=10 0 10 10 11 10 11 10 6 6 6 11 1 1 10 11 1 6 1 6 1 10 6 6 1 6 1 11 6 1 1 1 1 6 1 6 6 1 6 6 1 1 6 6 6 6 6 1 6 6 6 1 1 0 1 1 6 6 6 6 1 6
split_gain=1123.38 591.525 159.532 117.616 80.6303 203.855 61.2152 57.5277 65.3538 39.4309 37.757 35.8067 42.0786 35.5779 30.9785 51.7169 37.2009 25.3711 24.937 22.3931 21.5306 17.3931 16.8495 16.3714 27.1267 13.1308 21.8976 12.8716 26.2025 22.7273 18.2681 51.8937 14.6456 12.2356 8.60952 39.1357 9.56804 7.10315 6.51122 5.90723 30.1286 10.5492 5.59129 5.97365 5.02376 4.38433 3.47972 2.48744 2.12926 1.97043 1.96645 15.3095 3.82669 13.88 1.53702 1.52243 4.34435 3.3709 1.30247 1.08634 0.842811 3.0785
threshold=0 19.500000000000004 1 2 3 4 5 6 29.500000000000004 27.500000000000004 52.500000000000007 7 25.500000000000004 29.500000000000004 8 9 39.500000000000007 39.500000000000007 36.500000000000007 1.5000000000000002 4.5000000000000009 10 24.500000000000004 22.500000000000004 26.500000000000004 52.500000000000007 36.500000000000007 11 24.500000000000004 41.500000000000007 52.500000000000007 13.500000000000002 55.500000000000007 35.500000000000007 28.500000000000004 24.500000000000004 36.500000000000007 18.500000000000004 7.5000000000000009 11.500000000000002 38.500000000000007 5.5000000000000009 37.500000000000007 9.5000000000000018 2.5000000000000004 3.5000000000000004 49.500000000000007 30.500000000000004 51.500000000000007 56.500000000000007 48.500000000000007 30.500000000000004 48.500000000000007 18.500000000000004 58.500000000000007 22.500000000000004 43.500000000000007 45.500000000000007 44.500000000000007 46.500000000000007 27.500000000000004 17.500000000000004
decision_type=9 2 9 9 1 9 1 9 2 2 2 1 2 2 9 1 2 2 2 2 2 9 2 2 2 2 2 1 2 2 2 2 2 2 2 2 2 2 2 2 2 2 2 2 2 2 2 2 2 2 2 2 2 2 2 2 2 2 2 2 2 2
left_child=1 3 6 27 5 21 37 8 -6 -8 -4 12 -12 -10 15 44 20 39 48 -16 -17 22 -5 24 38 34 -27 28 30 55 31 -1 -31 -15 36 -36 -9 42 -22 40 -7 -41 43 -3 -2 -23 -39 -25 -19 -20 52 -52 60 -54 59 57 -57 -30 -47 -21 -29 -62
right_child=14 2 10 4 7 17 9 25 13 -11 11 -13 -14 33 19 16 -18 18 49 54 23 45 -24 47 -26 26 -28 50 29 32 -32 -33 -34 -35 35 -37 -38 46 -40 41 -42 -43 -44 -45 -46 58 -48 -49 -50 -51 51 -53 53 -55 -56 56 -58 -59 -60 -61 61 -63
leaf_value=-0.065919142752516993 0.036378454861162569 -0.095241875416147356 0.09527645807946164 0.060884975477677808 0.095451983577411012 -0.034112565204937849 -0.028737056477563541 -0.07655029916121936 -0.095269157539353513 0.095657451776119062 -0.054169132201467643 0.095241871249529653 0.095241871249529653 -0.014024591225076356 0.012290979374153906 0.096135001293048805 0.095281974656852675 -0.066112884818145659 0.027613519659291732 0.095339720455674737 0.026937490691870958 0.041363634897645996 -0.037057316857389028 -0.063238122160698781 0.095361092118005281 0.057109079469780222 -0.070835044008111359 -0.089488917252337541 -0.095396126500462905 0.05138828797285247 -0.090438197810568943 0.095427932429240803 -0.061312911420872446 0.095241871249529653 -0.0059775361871425925 -0.073082344921890266 -0.028630290042927966 -0.0045454885562007325 -0.038439305649027006 -0.088059420143027312 0.095434659837763253 -0.026288887786289405 -0.095265613000974594 -0.028059461980541347 0.095306880217793877 0.09530933444238586 -0.057427969094458575 -0.027040877010708581 -0.087615714070691075 -0.018156001731227143 0.0053002150395673013 -0.095241875416147426 -0.093506542716982111 -0.020586387063321349 0.06183782303444716 -0.053918099890059905 -0.095241875416147426 -0.066315997737743548 0.06568693937588764 0.073073285911803301 -0.054643241824232039 -0.087739743073719137
leaf_weight=11.12794347107411 4.0621162652969351 5.0216312408447292 105.18420903384686 7.0150478482246426 15.09421695768833 20.350116804242138 11.578559786081316 103.81603313982487 12.55444383621216 14.16298860311508 14.411505043506624 15.092792049050329 7.0018107444047919 6.5670890510082227 8.6078739464282972 4.8251780420541754 11.514509469270704 17.084693744778633 5.3063605129718763 235.89438553154469 5.3104061633348527 4.5278537273406974 11.740388080477713 12.06884713470936 7.0024484544992438 6.2356069982051832 7.2121989578008652 97.117244616150856 39.548267424106598 5.456635579466818 6.4329525232315055 9.0253226459026319 6.1109431236982346 4.2010864466428757 31.886434227228165 68.195374473929405 11.578435748815535 7.1893309056758863 13.466112107038496 7.8462956249713889 5.7579942792654029 58.04148705303669 13.809841394424437 9.7005122601985914 32.988077700138092 44.191768437623978 5.4832361787557602 7.8223555386066428 35.29976162314415 4.2229049652814865 5.3119725286960628 13.181782007217405 17.731764137744904 10.326169401407244 3.584165319800376 13.627286478877069 11.926374197006224 13.322341129183767 4.0509527027606955 5.6079851388931266 8.7722113430500013 35.298099488019943
leaf_count=26 20 8 676 39 97 64 38 215 20 91 38 97 45 24 37 31 74 40 25 1516 25 23 36 29 45 34 16 169 63 29 11 58 15 27 123 147 38 28 41 14 37 194 22 32 212 284 14 26 63 15 22 21 29 36 20 36 19 31 23 33 23 63
internal_value=5.01281e-10 -0.0269742 0.0477083 -0.0468605 -0.0296589 -0.00823574 -0.018085 -0.0488333 0.0114163 0.0397047 0.0747922 0.0362589 -0.00531413 -0.038076 0.0755292 0.0382469 0.0141823 -0.0397411 -0.0670688 0.0880843 -0.00431097 0.0571267 -0.000276687 -0.0149234 0.0113729 -0.0569549 -0.0115087 -0.0713942 -0.0606908 -0.0735751 -0.0170788 0.0063376 -0.00814972 0.0286045 -0.0624344 -0.0517025 -0.0717421 -0.0585769 -0.0199493 -0.0256693 -0.00554167 -0.0336449 -0.0724122 -0.050975 0.0888461 0.0743226 -0.027427 -0.0490033 -0.0806028 0.0073307 -0.0818434 -0.0663631 -0.083535 -0.0666697 0.0943403 -0.0832253 -0.0732047 -0.0880685 0.0928219 0.0948227 -0.0868866 -0.0811519
internal_weight=1358.48 1005.73 208.636 797.094 492.777 225.436 66.9461 267.341 38.4168 25.7415 141.69 36.5061 21.4133 23.3226 352.754 99.0601 62.0099 153.91 61.9137 253.694 50.4953 71.526 18.7554 45.6702 25.779 228.924 13.4478 304.317 116.578 89.9918 26.5862 20.1533 11.5676 10.7682 215.476 100.082 115.394 41.2046 18.7765 91.9959 26.1081 65.8878 28.532 14.7221 37.0502 52.7706 12.6726 19.8912 52.3845 9.52927 187.739 18.4938 169.245 28.0579 245.087 78.4243 25.5537 52.8706 48.2427 241.502 141.188 44.0703
internal_count=5447 3338 1089 2249 1598 857 233 741 168 129 856 180 83 71 2109 503 271 452 143 1606 197 405 75 166 111 573 50 651 288 193 95 84 44 51 523 270 253 104 66 309 101 208 62 40 232 330 42 55 103 40 363 43 320 65 1569 149 55 94 307 1549 255 86
cat_boundaries=0 2 3 4 5 7 8 9 10 11 12 14 15
cat_threshold=4211344924 3 553910272 2197815808 1 134479896 3 1 536870916 2 69271554 1 8 2 1
is_linear=0
shrinkage=0.05


Tree=2
num_leaves=41
num_cat=0
split_feature=8 8 0 6 1 7 8 7 1 7 1 7 7 1 1 1 8 7 8 0 6 0 1 6 7 1 6 8 8 1 8 0 7 8 8 1 6 6 8 6
split_gain=3365.75 768.331 164.287 75.81 13.1118 7.44787 17.0939 4.30573 3.59723 2.28026 1.41471 2.70722 10.4321 0.452374 0.17227 0.0998512 0.0668623 0.0576899 0.183271 0.0500771 0.0409453 0.0330231 0.0272503 0.0338657 0.0219176 0.0145253 0.0175347 0.0110015 0.00651917 0.00556547 0.00493591 0.00461473 0.00459659 0.004228 0.00443821 0.00336424 0.00189761 0.00177544 0.00160196 0.0010298
threshold=295.50000000000006 -43.499999999999993 18.500000000000004 1.5000000000000002 25.500000000000004 0.99367088607594944 178.50000000000003 0.34941860465116287 9.5000000000000018 0.025478740668614091 7.5000000000000009 0.47165775401069526 0.45049019607843144 39.500000000000007 1.0000000180025095e-35 12.500000000000002 115.00000000000001 0.95505050505050526 390.50000000000006 19.500000000000004 24.500000000000004 19.500000000000004 25.500000000000004 26.500000000000004 0.53950103950103967 2.5000000000000004 25.500000000000004 319.50000000000006 -69.499999999999986 25.500000000000004 411.50000000000006 19.500000000000004 0.62141687141687152 606.50000000000011 386.00000000000006 30.500000000000004 52.500000000000007 9.5000000000000018 41.500000000000007 26.500000000000004
decision_type=2 2 2 2 2 2 2 2 2 2 2 2 2 2 2 2 2 2 2 2 2 2 2 2 2 2 2 2 2 2 2 2 2 2 2 2 2 2 2 2
left_child=1 7 -3 4 9 10 8 -1 -7 -4 11 12 -5 -6 -2 -9 21 22 -19 -13 -18 -12 25 33 -25 26 -16 -27 29 -17 39 -32 -26 34 -24 -34 -20 -36 -10 -29
right_child=14 2 3 5 13 6 -8 15 38 -11 16 19 -14 -15 17 28 20 18 36 -21 -22 -23 23 24 32 27 -28 30 -30 -31 31 -33 35 -35 37 -37 -38 -39 -40 -41
leaf_value=-0.049293557394664858 -0.086544852914677742 -0.089289871295853612 -0.045281740421449376 0.084080964878784872 0.039166825079393189 0.043553719413879095 -0.03486621999310148 -0.087884325287745008 0.091790868026670691 -0.0067745124608165888 0.092380877932086713 0.094602887402910257 -0.0014342103562170324 0.062602913314660391 -0.089310944258250258 -0.091807904668560397 0.092510185648405574 -0.084989066999589566 -0.092575534985249508 0.0916947478987825 0.095025341118798429 0.091466853445987539 -0.092832090885248242 -0.089919934680240121 -0.092993016110655635 -0.093200479302128852 -0.091889717470860555 -0.091689043071774362 -0.09365265698006664 -0.093017622433221384 -0.091810169420829743 -0.092745255909197064 -0.092586458631804841 -0.092554644168047151 -0.093218424137883796 -0.091913493326165663 -0.091796041282548702 -0.093879644281091301 0.092911239565139817 -0.091256145645727926
leaf_weight=6.5806300640106192 15.464207530021666 13.459865152835844 8.4553811103105563 42.147434636950493 4.3717692345380765 4.9762250930070939 3.7561132758855811 13.435529410839079 12.064287513494493 7.0499781370162955 327.07720352709293 23.590073972940445 3.8960281014442435 3.8922672420740128 13.258411407470705 19.97589898109436 31.121175080537796 12.341222196817396 15.62584972381592 39.740275800228119 33.707405254244804 141.60127624869347 24.389840543270111 12.029706940054892 14.385404407978056 13.768474996089934 13.110141992568968 19.346985518932343 13.779675424098967 18.142904102802277 159.79756373167038 14.381672799587248 23.127295613288879 19.997870028018951 15.019569635391234 94.270814120769501 15.604884028434752 31.325892567634583 4.3377472311258307 47.385344862937927
leaf_count=18 27 23 24 263 22 26 12 23 78 27 2113 152 16 22 22 32 201 22 25 257 217 916 39 20 23 22 21 31 22 29 256 23 37 32 24 151 25 50 28 76
internal_value=1.54096e-06 0.0678431 0.0837186 0.0870848 -0.000662152 0.090207 0.0635062 -0.0878432 0.08079 -0.0277733 0.0912509 0.0860706 0.076845 0.050205 -0.0917507 -0.0917261 0.0923129 -0.0918946 -0.0901476 0.092778 0.0938179 0.0921047 -0.0920423 -0.0924402 -0.0919629 -0.0917102 -0.0905931 -0.0918259 -0.0927206 -0.0923837 -0.0917473 -0.0918874 -0.0921494 -0.0931966 -0.093378 -0.0920461 -0.092186 -0.0936654 0.0920872 -0.0913817
internal_weight=1351.79 777.159 705.245 691.785 23.7694 668.015 25.1344 71.9146 21.3783 15.5054 642.881 109.374 46.0435 8.26404 574.631 65.334 533.507 559.167 43.572 63.3303 64.8286 468.678 515.595 234.546 143.813 281.049 26.3686 254.68 51.8985 38.1188 240.912 174.179 131.784 90.7332 70.7353 117.398 31.2307 46.3455 16.402 66.7323
internal_count=5447 4521 4397 4374 95 4279 144 124 132 51 4135 688 279 44 926 106 3447 899 72 409 418 3029 827 376 231 451 43 408 83 61 386 279 211 145 113 188 50 74 106 107
is_linear=0
shrinkage=0.05


Tree=3
num_leaves=38
num_cat=0
split_feature=8 8 0 7 1 7 8 7 7 1 7 7 1 1 7 1 7 1 7 8 1 1 7 7 8 8 8 1 8 0 8 8 1 8 1 7 7
split_gain=3068.31 700.132 149.707 44.1391 20.8484 6.43512 15.5962 4.16821 4.01512 3.33943 3.21253 4.93932 2.21382 1.26503 2.72765 0.163043 0.146502 0.0923604 0.0545528 0.172617 0.0206802 0.0133019 0.0220908 0.0143501 0.012343 0.00831346 0.00491108 0.00420898 0.00374399 0.00349275 0.00346796 0.00205567 0.00165833 0.0012194 0.00116597 0.000984429 0.000779793
threshold=295.50000000000006 -43.499999999999993 18.500000000000004 0.037505860290670427 34.500000000000007 0.99367088607594944 178.50000000000003 0.067989214175654858 0.34941860465116287 9.5000000000000018 0.050316455696202543 0.05634920634920635 14.500000000000002 7.5000000000000009 0.47165775401069526 1.0000000180025095e-35 0.14415584415584418 12.500000000000002 0.95505050505050526 390.50000000000006 2.5000000000000004 25.500000000000004 0.45049019607843144 0.52223320158102771 434.50000000000006 319.50000000000006 -69.499999999999986 25.500000000000004 411.50000000000006 19.500000000000004 817.50000000000011 606.50000000000011 30.500000000000004 41.500000000000007 28.500000000000004 0.98397435897435914 0.44629120879120887
decision_type=2 2 2 2 2 2 2 2 2 2 2 2 2 2 2 2 2 2 2 2 2 2 2 2 2 2 2 2 2 2 2 2 2 2 2 2 2
left_child=1 8 -3 4 12 7 9 10 -1 -7 34 -12 -4 14 -9 -2 -15 -10 20 -20 24 25 31 -24 -17 -22 27 -19 36 -30 -25 32 -23 -11 -5 -21 -27
right_child=15 2 3 5 -6 6 -8 13 17 33 11 -13 -14 16 -16 18 -18 26 19 35 21 22 23 30 -26 28 -28 -29 29 -31 -32 -33 -34 -35 -36 -37 -38
leaf_value=-0.046940548900877205 -0.082962473254325611 -0.085506315206627173 -0.040539430422268929 0.091544309289731118 0.092645769876339087 0.041513300897412043 -0.033120522774907173 0.072656119671971026 -0.084265567930827623 0.088128317706930623 0.0019190635442991233 0.072059914393547975 -0.00060616749223564321 0.08516969363288529 0.088994081292275859 -0.085932620953853289 0.088562801327414245 -0.08814069395765245 -0.081456030315373559 -0.0882416167473737 -0.089356959584962495 -0.089086927390484572 -0.087006066897655152 -0.088660603144297134 -0.088110275757171494 -0.088036688586600506 -0.089750424913578181 -0.089197813144183916 -0.088143061059304639 -0.088960432399904144 -0.088086324390580784 -0.088921698750076536 -0.08972353398921834 0.089110488079205463 0.090168463365036255 -0.088817386115726052 -0.087658000934277183
leaf_weight=6.5653417706489554 15.32865723967552 13.355182379484175 7.8103586733341235 3.081553369760516 5.4187998026609412 4.9601716846227708 3.7563674151897422 43.095222517848015 13.314817637205122 11.940402358770372 4.0390119701623899 6.6300226151943207 6.2463108003139496 34.048600450158119 62.736243829131126 13.746541455388071 484.26148176193237 19.771641135215759 12.23525634407997 18.540735900402069 13.645616471767424 13.63315576314926 17.487808525562286 109.52806621789932 12.355608046054838 19.147016644477844 13.662655174732206 17.977837085723877 158.16326105594635 14.24711227416992 34.59117716550827 16.098206996917725 40.979350507259369 4.2975915819406501 3.0779809653759003 12.381400585174562 46.87630969285965
leaf_count=18 27 23 23 20 35 26 12 262 23 78 17 40 25 219 409 23 3160 32 22 30 22 22 29 177 20 31 22 29 256 23 56 26 66 28 20 20 76
internal_value=1.44874e-06 0.0650618 0.0802903 0.0835209 0.00932532 0.0856908 0.0607805 0.0866607 -0.0841979 0.07742 0.0621054 0.0455065 -0.0227944 0.0873227 0.0823412 -0.0880492 0.0883399 -0.0879769 -0.08819 -0.0864831 -0.0883343 -0.0884082 -0.0886812 -0.0883586 -0.0869634 -0.0881567 -0.0889381 -0.0886441 -0.088088 -0.0882106 -0.0885228 -0.0894182 -0.0895646 0.0883883 0.0908568 -0.0884722 -0.0877678
internal_weight=1339.03 770.048 698.755 685.4 19.4755 665.925 24.9545 640.97 71.2923 21.1982 16.8286 10.669 14.0567 624.142 105.831 568.985 518.31 64.727 553.657 43.1574 510.499 484.397 232.318 161.607 26.1021 252.079 51.4121 37.7495 238.434 172.41 144.119 70.7107 54.6125 16.238 6.15953 30.9221 66.0233
internal_count=5447 4521 4397 4374 83 4291 144 4147 124 132 97 57 48 4050 671 926 3379 106 899 72 827 784 376 262 43 408 83 61 386 279 233 114 88 106 40 50 107
is_linear=0
shrinkage=0.05


Tree=4
num_leaves=63
num_cat=7
split_feature=9 0 11 6 0 9 1 1 0 0 0 11 7 1 6 11 1 7 6 6 6 6 0 7 6 0 1 6 6 1 6 1 1 7 1 6 7 6 1 1 6 1 1 6 7 7 7 1 7 11 1 7 7 1 11 6 1 7 7 7 6 1
split_gain=463.701 422.532 84.5781 148.914 73.1589 53.8244 47.2638 43.68 54.921 40.8476 32.0286 31.3935 27.2722 42.8421 22.4441 21.0321 18.4388 15.7978 21.6187 15.6609 20.2975 15.1007 17.5422 14.5886 11.8612 11.5834 30.563 61.3823 11.41 16.7801 10.0109 24.8546 9.7515 9.04127 13.7103 9.02979 8.23488 8.19915 14.2373 7.6072 7.31839 10.3206 6.05496 19.5661 6.00608 9.91806 5.90378 14.594 14.7079 10.3868 7.25327 22.4074 16.3231 6.58024 7.57446 11.2675 5.62598 4.55864 11.0792 2.58673 3.05915 2.35849
threshold=0 19.500000000000004 1 24.500000000000004 18.500000000000004 2 37.500000000000007 20.500000000000004 19.500000000000004 18.500000000000004 18.500000000000004 3 0.6066017316017317 25.500000000000004 15.500000000000002 4 32.500000000000007 0.71320346320346328 22.500000000000004 15.500000000000002 1.5000000000000002 33.500000000000007 20.500000000000004 0.49683544303797472 35.500000000000007 18.500000000000004 45.500000000000007 34.500000000000007 11.500000000000002 12.500000000000002 56.500000000000007 38.500000000000007 14.500000000000002 0.52985739750445637 5.5000000000000009 52.500000000000007 0.46737588652482276 39.500000000000007 16.500000000000004 22.500000000000004 11.500000000000002 22.500000000000004 47.500000000000007 42.500000000000007 0.97849213691026837 0.5913729128014843 0.36474501108647456 34.500000000000007 0.56594202898550738 5 36.500000000000007 0.71320346320346328 0.66877637130801693 30.500000000000004 6 6.5000000000000009 4.5000000000000009 0.28679653679653688 0.18257575757575759 0.7835585585585586 53.500000000000007 7.5000000000000009
decision_type=1 2 1 2 2 1 2 2 2 2 2 1 2 2 2 1 2 2 2 2 2 2 2 2 2 2 2 2 2 2 2 2 2 2 2 2 2 2 2 2 2 2 2 2 2 2 2 2 2 1 2 2 2 2 1 2 2 2 2 2 2 2
left_child=1 2 3 10 -2 12 37 8 11 -8 -1 19 -3 21 15 33 32 18 36 20 -6 -14 35 28 56 -4 30 57 39 -30 40 -32 -7 34 -10 -23 -13 38 61 -12 41 -27 46 -44 45 -11 53 48 49 -48 51 -49 -52 54 -9 -56 -21 58 -28 -39 -61 -5
right_child=4 5 25 6 7 16 9 42 14 44 23 17 13 -15 -16 -17 -18 -19 -20 24 -22 22 -24 -25 -26 26 27 -29 29 -31 31 -33 -34 -35 -36 -37 -38 59 -40 -41 -42 -43 43 -45 -46 -47 47 50 -50 -51 52 -53 -54 -55 55 -57 -58 -59 -60 60 -62 -63
leaf_value=-0.079544657874920432 -0.085498959914273073 0.085289653187386252 -0.085005271276481983 -0.07763943125598928 -0.044633284623517136 -0.026058931508117406 -0.087250082512544069 0.087630728800183175 -0.036550205938574269 0.0013727631354547775 0.079807283050957287 0.0091317881575957282 0.085727179040804402 0.084721101518803299 0.084715220306891686 0.085220952872774383 -0.07075628539768293 -0.036359626483844151 0.086234805527624067 -0.035552028238456407 0.085826203387244115 0.016223329557264236 0.085523137207336439 0.084807378667724323 0.084874021793017618 -0.055528790560651513 0.088314132055483149 -0.056811023610193967 -0.036536677133054238 0.03247894774064608 0.066558350869416374 -0.085107053336335337 0.065260291793682507 -0.059558150933122792 0.084547807590833357 -0.027249171717002765 -0.039303268642138192 -0.08062333584446546 -0.016164958077848839 0.033189572957243778 -0.063055110489994237 -0.0053655375469121632 0.082495670221472181 -0.045051470700244844 -0.022376747924641654 0.061893786928150785 0.073102725682963554 -0.057718724074042022 0.082288857363969292 0.0025685734325632745 0.084602238754052872 0.085165355310200475 0.018314301154191522 0.085206908247167645 -0.014228733546442785 0.084622209957973274 0.016055396136617089 0.087239487409038752 -0.029003817242989012 -0.050672693307361884 -0.071968022885882429 -0.05227238649161025
leaf_weight=6.2333340495824805 10.994345366954802 58.654391512274742 28.937916725873947 16.619568079710007 3.4499790519475964 6.5424290001392382 9.8466351032257062 7.455808237195015 5.0217311531305295 11.298040777444841 12.964973226189612 28.75807511806488 7.1146368086338034 37.41123640537262 47.064706698060036 9.2190946936607361 13.505905851721762 32.600468203425407 7.5731492936611167 7.0218278467655209 21.955306321382523 28.755058020353317 6.5068128854036322 13.886039003729818 5.2822026759386054 40.304541781544685 4.4392041414976138 30.685966014862061 12.85742539167404 27.959026291966438 5.3179527670145017 5.4900096654891968 5.2848577052354813 5.8051148056983957 4.3723181039094925 20.433153241872787 12.629571512341498 24.399669289588928 27.500140979886055 26.924857348203659 250.15270228683949 13.752056151628492 51.345910683274269 3.1938121467828742 4.8929620385169974 16.888684615492821 8.9165646433830261 7.3348327428102476 43.888342186808586 12.58804826438427 13.871720269322394 4.3837844431400299 28.09895247220993 29.775754198431969 7.5213799029588717 4.67427097260952 21.30102451145649 8.6869871318340284 3.6812464594841003 32.781723365187645 34.73240864276886 20.422555282711983
leaf_count=11 18 388 48 31 10 22 16 49 15 47 82 126 47 248 312 61 28 100 50 22 145 133 43 92 35 101 29 75 39 142 32 9 32 14 29 68 38 43 99 138 566 54 337 9 17 99 56 18 288 53 92 29 131 197 28 31 98 57 12 86 69 53
internal_value=1.2358e-06 -0.0210882 -0.0392511 -0.0192856 0.0409625 0.0459644 -0.0443276 0.0450994 0.0288517 0.002148 0.0302348 0.0107062 0.0547638 0.0423628 0.0645348 0.0256383 -0.0221102 -0.00939224 0.00856396 0.0384854 0.0681101 0.017133 0.00837057 0.0374689 0.0160892 -0.054563 -0.0521329 -0.0147426 0.0293241 0.0107386 -0.05777 -0.0104816 0.0147458 -0.0105017 0.019813 -0.00183547 -0.00564832 -0.057079 -0.0434197 0.0483412 -0.05945 -0.0427672 0.0605462 0.0750266 0.0287586 0.0376352 0.0558595 0.0498299 0.0656903 0.0318145 0.0305122 -0.00426762 0.0402231 0.070386 0.0479295 0.0236582 0.00326084 0.0620632 0.0351303 -0.0666706 -0.061628 -0.0636537
internal_weight=1321.96 875.865 691.657 300.208 446.098 184.208 199.382 435.104 212.055 42.9263 100.826 140.572 158.875 100.221 71.483 24.4183 25.3332 81.5613 48.9608 59.0103 25.4053 62.8097 55.695 94.5923 33.6051 391.449 362.511 47.4934 80.7063 40.8165 315.017 10.808 11.8273 15.1992 9.39405 49.1882 41.3876 156.456 64.5423 39.8898 304.209 54.0566 223.049 54.5397 33.0797 28.1867 168.509 119.082 65.393 21.5046 53.6893 11.7186 41.9707 49.4272 19.6515 12.1957 28.3229 16.8074 8.12045 91.9138 67.5141 37.0421
internal_count=5447 3056 2047 1064 2391 1009 560 2373 1055 179 504 624 927 539 431 119 82 314 214 310 155 291 244 493 155 983 935 173 401 181 762 41 54 58 44 201 164 381 183 220 721 155 1318 346 163 146 972 667 397 109 270 47 223 305 108 59 120 98 41 198 155 84
cat_boundaries=0 1 2 3 4 5 6 7
cat_threshold=40 1 8 1 1 1 2
is_linear=0
shrinkage=0.05


Tree=5
num_leaves=46
num_cat=2
split_feature=8 8 5 6 1 7 8 7 1 7 1 7 7 1 8 1 7 8 6 8 1 8 11 8 8 6 1 1 8 6 11 8 8 6 7 7 8 8 8 7 8 8 1 7 1
split_gain=2671.13 610.566 127.253 64.1714 9.67473 6.07741 13.3856 3.77508 3.07339 1.87896 1.27698 2.54238 9.18588 0.336919 0.166131 0.517122 0.177925 0.0946851 0.0852684 0.0839911 0.081289 0.0679412 0.0735944 0.0496303 0.0325031 0.0200741 0.0140563 0.0247388 0.00935071 0.0100632 0.0198266 0.00931586 0.0186283 0.0100393 0.00600891 0.00599976 0.00565841 0.004183 0.00453908 0.00351714 0.00514729 0.00321629 0.00217113 0.000495841 8.10201e-05
threshold=295.50000000000006 -43.499999999999993 1.0000000180025095e-35 1.5000000000000002 25.500000000000004 0.99367088607594944 178.50000000000003 0.34941860465116287 9.5000000000000018 0.025478740668614091 7.5000000000000009 0.47165775401069526 0.45049019607843144 39.500000000000007 350.50000000000006 6.5000000000000009 0.90990259740259749 115.00000000000001 24.500000000000004 85.000000000000014 12.500000000000002 408.00000000000006 0 -17.499999999999996 1520.5000000000002 37.500000000000007 52.500000000000007 55.500000000000007 326.00000000000006 39.500000000000007 1 705.50000000000011 594.00000000000011 34.500000000000007 0.81302966101694929 0.34941860465116287 41.500000000000007 -282.49999999999994 -79.499999999999986 0.77859477124183019 1005.0000000000001 599.50000000000011 12.500000000000002 0.26726190476190481 28.500000000000004
decision_type=2 2 2 2 2 2 2 2 2 2 2 2 2 2 2 2 2 2 2 2 2 2 1 2 2 2 2 2 2 2 1 2 2 2 2 2 2 2 2 2 2 2 2 2 2
left_child=1 7 3 4 9 10 8 -1 -7 -3 11 12 -5 -6 15 -2 28 23 -19 -13 -9 22 25 -12 26 -16 31 -28 29 30 -17 32 33 -23 -24 -34 -10 -22 -39 43 -41 -29 -26 -33 -30
right_child=14 2 -4 5 13 6 -8 20 36 -11 17 19 -14 -15 21 16 -18 18 -20 -21 37 24 34 -25 42 -27 27 41 44 -31 -32 39 35 -35 -36 -37 -38 38 -40 40 -42 -43 -44 -45 -46
leaf_value=-0.043139062031919473 -0.070280989685788151 -0.04148336607497808 -0.079078548592343464 0.075600387844715844 0.032355299875887936 0.038440971292369105 -0.029739039720220985 -0.079595240014159463 0.083122255071981163 -0.0064621964045656153 0.086226609093431592 0.083427785174826699 -0.0050553647213169252 0.052765196293309315 -0.087405242676566935 -0.085361069472992254 -0.076897291596677284 0.083612038317054133 0.087292575429610178 0.088177076718828074 -0.084696378834764385 -0.083611582739106821 -0.08242333372394306 0.08337008660665797 -0.084188965573410601 -0.084902912589307461 -0.080615510952729896 -0.083618376681627998 -0.082652592927465809 -0.08248536011016791 -0.083098124731139769 -0.082918168288735578 -0.085287965452755798 -0.082837195712368916 -0.083920143544851999 -0.083989129790915759 0.085258964523868164 -0.082931753481397696 -0.084134656704056815 -0.082691906747567864 -0.083990648758054426 -0.082584559872699248 -0.085001517834127044 -0.082562006854671133 -0.082488290281252707
leaf_weight=6.5139084309339514 9.6383654475212079 8.398465424776079 13.014601424336432 40.95050872862339 4.3235337138175947 4.9145879298448625 3.7416543811559668 13.053795382380484 11.64988538622856 7.0408560782670966 15.753870621323584 49.908140599727631 3.8631478399038306 3.7984529137611389 23.410706281661987 17.091898262500763 12.591969728469847 30.086200341582298 32.993468016386032 11.443874850869177 15.819731891155241 78.003495991230011 15.016252636909487 437.13827829062939 12.744193613529204 12.186939418315886 14.587080985307692 15.724140524864199 15.640061855316164 13.219638168811796 22.318052589893341 12.049658417701719 12.207356274127958 90.307388603687286 12.114357054233549 32.731576383113861 4.2210973501205435 12.052232921123496 22.451495468616493 16.84523564577103 13.94443619251251 14.425043582916258 23.162547886371613 51.700758159160614 14.421896338462828
leaf_count=18 19 24 23 263 22 26 12 23 78 27 104 334 16 22 38 28 23 201 217 75 26 129 25 2925 21 20 25 26 26 22 37 20 20 150 20 54 28 20 37 28 23 24 38 86 24
internal_value=4.80922e-06 0.0613734 0.0757722 0.0787791 -0.0022741 0.0817323 0.05732 -0.0793857 0.0729916 -0.0255125 0.0826947 0.0777008 0.0686475 0.0419005 -0.0831098 -0.0813177 -0.0824341 0.0837222 0.0855371 0.0843137 -0.0831111 -0.0835266 -0.0850534 0.0834695 -0.08328 -0.0865486 -0.083134 -0.0823059 -0.0832773 -0.0836791 -0.0840796 -0.0832544 -0.0834376 -0.0831961 -0.0830917 -0.0843419 0.0836905 -0.0840232 -0.0837145 -0.0828413 -0.0832801 -0.0831237 -0.0847131 -0.0826293 -0.0825738
internal_weight=1309.21 753.132 683.241 670.226 23.5613 646.665 24.5272 69.8912 20.7856 15.4393 622.137 106.166 44.8137 8.12199 556.083 104.922 95.2835 515.972 63.0797 61.352 63.3773 451.161 62.7283 452.892 388.433 35.5976 352.526 44.7363 82.6915 52.6296 39.41 307.79 213.25 168.311 27.1306 44.9389 15.871 50.3235 34.5037 94.5401 30.7897 30.1492 35.9067 63.7504 30.062
internal_count=5447 4521 4397 4374 95 4279 144 124 132 51 4135 688 279 44 926 179 160 3447 418 409 106 747 103 3029 644 58 585 75 137 87 65 510 353 279 45 74 106 83 57 157 51 50 59 106 50
cat_boundaries=0 1 2
cat_threshold=1 1
is_linear=0
shrinkage=0.05


Tree=6
num_leaves=40
num_cat=3
split_feature=8 8 0 7 7 7 8 7 7 7 11 7 7 0 8 7 8 8 8 7 8 7 7 8 11 8 11 7 8 8 7 8 8 8 8 7 8 7 7
split_gain=2455.63 560.927 116.919 38.9889 6.95173 5.55013 12.3148 4.68598 3.60764 2.20097 1.02585 0.844691 4.53764 0.171334 0.156067 0.292554 0.0751456 0.0531508 0.0569549 0.0356351 0.0255148 0.019836 0.0174909 0.0123842 0.00966973 0.00548197 0.00818671 0.00722274 0.00885025 0.00734719 0.00470724 0.0032497 0.00847287 0.00290158 0.0044543 0.00117546 0.0010897 0.000812007 0.000162588
threshold=295.50000000000006 -43.499999999999993 18.500000000000004 0.025478740668614091 0.05634920634920635 0.99367088607594944 178.50000000000003 0.050316455696202543 0.34941860465116287 0.037505860290670427 0 0.47165775401069526 0.46225071225071229 19.500000000000004 350.50000000000006 0.79873417721519002 -69.499999999999986 408.00000000000006 386.00000000000006 0.88284313725490204 1520.5000000000002 0.020008003201280513 0.67769272826681248 319.50000000000006 1 411.50000000000006 2 0.37271518777002333 594.00000000000011 606.50000000000011 0.81302966101694929 462.50000000000006 641.00000000000011 -282.49999999999994 -101.49999999999999 0.044949494949494954 335.50000000000006 0.66877637130801693 0.85584415584415596
decision_type=2 2 2 2 2 2 2 2 2 2 1 2 2 2 2 2 2 2 2 2 2 2 2 2 1 2 1 2 2 2 2 2 2 2 2 2 2 2 2
left_child=1 8 -3 21 7 11 10 9 -1 -5 -7 12 -6 -13 15 23 33 18 30 -17 25 -4 -20 -2 -25 -19 31 29 -29 -28 -16 38 -33 -10 -35 -11 -26 -22 -27
right_child=14 2 3 4 5 6 -8 -9 16 35 -12 13 -14 -15 17 19 -18 20 22 -21 37 -23 -24 24 36 26 27 28 -30 -31 -32 32 -34 34 -36 -37 -38 -39 -40
leaf_value=-0.041183896932050539 -0.079184954544533281 -0.076425303462634209 -0.016148935682081634 0.042792795241591894 0.078631810244926756 0.081361368170971102 -0.028294201086938749 -0.00085762233409984756 -0.081859229657580343 0.084201836110727304 0.058973541275301244 0.082017173610240676 0.041800239461873577 0.079794999869063327 -0.079855316299176055 -0.072031169725859087 -0.07715462207876822 -0.079715425328364342 -0.084355426968027086 -0.075721191655778508 -0.081715983927211619 -0.012021287069810342 -0.082026970467794086 -0.081675694788439446 -0.080493462467149182 -0.081262445652503623 -0.081230232538038488 -0.080557298907415892 -0.079818665427857149 -0.080183805536009678 -0.081192386464958147 -0.080063314829854751 -0.08123103445617387 -0.080400532989887863 -0.081581940258708532 0.082796448425235897 -0.079972543348779124 -0.082216579226281936 -0.081499743415822778
leaf_weight=6.4827826470136634 19.725830405950546 12.798544421792029 6.3145348131656629 7.5104254931211489 235.21256034076214 10.465465471148491 3.7362208962440482 3.9980185180902472 16.148303270339966 2.9855045825242996 10.011778131127361 217.26126138865948 8.6706332266330701 144.3886728733778 14.730506598949434 11.090137362480165 14.024613976478575 21.772611677646637 22.480804562568665 15.956349879503248 22.707083880901337 5.3994947373867035 12.577493429183958 16.11175400018692 19.544526934623718 16.062807142734531 41.079058229923248 82.348222076892853 79.905920252203941 28.351207673549652 11.900650799274443 27.147689282894135 36.313654243946075 14.796099364757533 17.315455436706547 2.9659177213907242 20.643024206161499 12.593516230583189 13.109765231609343
leaf_count=18 34 23 23 40 1582 71 12 17 27 20 61 1469 49 990 25 21 25 37 37 29 38 20 21 27 33 27 69 139 136 48 20 46 61 25 29 20 35 21 22
internal_value=4.64279e-06 0.0593275 0.0732514 0.0761587 0.0777949 0.0786578 0.0551842 0.0466737 -0.0766816 0.0607899 0.0704155 0.0795964 0.0773224 0.08113 -0.0804266 -0.0786742 -0.0803763 -0.0808343 -0.0821959 -0.0742081 -0.0806141 -0.0142463 -0.0835201 -0.0802631 -0.0806408 -0.0804834 -0.080535 -0.0803762 -0.0801935 -0.0808029 -0.0804528 -0.0809323 -0.0807315 -0.0813125 -0.0810376 0.0835015 -0.0802259 -0.0818946 -0.0813691
internal_weight=1286.64 740.486 671.719 658.92 647.206 629.747 24.2135 17.4599 68.7673 13.4618 20.4772 605.533 243.883 361.65 546.153 103.072 62.2845 443.081 61.6895 27.0465 381.392 11.714 35.0583 76.0251 56.2993 346.091 324.318 231.684 162.254 69.4303 26.6312 92.6339 63.4613 48.2599 32.1116 5.95142 40.1876 35.3006 29.1726
internal_count=5447 4521 4397 4374 4331 4234 144 97 124 80 132 4090 1631 2459 926 179 106 747 103 50 644 43 58 129 95 585 548 392 275 117 45 156 107 81 54 40 68 59 49
cat_boundaries=0 1 2 3
cat_threshold=1 1 1
is_linear=0
shrinkage=0.05


Tree=7
num_leaves=41
num_cat=0
split_feature=8 8 0 6 1 7 8 7 1 7 1 7 7 1 1 0 6 0 1 8 7 8 8 1 8 7 1 1 0 6 8 6 6 0 7 7 6 1 8 1
split_gain=2263.13 516.488 107.662 57.3596 8.54574 5.47446 11.3497 3.47411 2.98434 1.44435 1.29329 2.44572 8.48245 0.337068 0.155416 0.119963 0.0890396 0.0835707 0.0826245 0.0506464 0.16012 0.0402609 0.0416714 0.0361881 0.0208926 0.0130153 0.0120306 0.0180165 0.01128 0.00788586 0.00536568 0.00609372 0.00496741 0.00378927 0.00255287 0.00244038 0.00227859 0.00138331 0.00130874 6.5716e-05
threshold=295.50000000000006 -43.499999999999993 18.500000000000004 1.5000000000000002 25.500000000000004 0.99367088607594944 178.50000000000003 0.34941860465116287 9.5000000000000018 0.025478740668614091 7.5000000000000009 0.47165775401069526 0.45049019607843144 39.500000000000007 1.0000000180025095e-35 19.500000000000004 28.500000000000004 19.500000000000004 12.500000000000002 350.50000000000006 0.90990259740259749 408.00000000000006 386.00000000000006 9.5000000000000018 1520.5000000000002 0.67769272826681248 53.500000000000007 56.500000000000007 19.500000000000004 54.500000000000007 326.00000000000006 17.500000000000004 46.500000000000007 19.500000000000004 0.7956864564007422 0.61326979472140775 31.500000000000004 12.500000000000002 -69.499999999999986 28.500000000000004
decision_type=2 2 2 2 2 2 2 2 2 2 2 2 2 2 2 2 2 2 2 2 2 2 2 2 2 2 2 2 2 2 2 2 2 2 2 2 2 2 2 2
left_child=1 7 -3 4 9 10 8 -1 -7 -4 11 12 -5 -6 -2 16 -12 -13 -9 20 23 22 34 -16 26 -24 28 -28 29 -23 31 -25 -17 -10 -21 -33 38 -26 -20 -32
right_child=14 2 3 5 13 6 -8 18 33 -11 15 17 -14 -15 19 32 -18 -19 36 21 -22 24 25 30 37 -27 27 -29 -30 -31 39 35 -34 -35 -36 -37 -38 -39 -40 -41
leaf_value=-0.039342906804924464 -0.072925579426906209 -0.074031590898745614 -0.038895541906777735 0.070372243219322228 0.029205234470782666 0.033806771578097139 -0.026928767488809166 -0.074325790836641217 0.079445351975263728 -0.00814930945645434 0.078667814595732605 0.081525087356052781 -0.007431777558635097 0.049740163593752371 -0.075248022845309778 0.077240929696167748 0.080444949504774294 0.077648875442701215 -0.078331929065204683 -0.077579413232655825 -0.071786486898465743 -0.078224616896497554 -0.081553674403310475 -0.079356287919029933 -0.078961123159382848 -0.079505434312842529 -0.076005676585803386 -0.078196780835780633 -0.079478001160685638 -0.077371781334697146 -0.077814167428023981 -0.078744091902935492 0.077952621234941066 0.077811007729520057 -0.078604697785686115 -0.077839708061721066 -0.079303260164701711 -0.079621887200236566 -0.079011174701251671 -0.077658552892824931
leaf_weight=6.4477223455905905 14.497866615653036 12.557832881808279 8.3578872084617633 39.606070041656494 4.2832185775041562 4.8405468314886155 3.7295528054237357 12.592577606439589 9.721129044890402 7.0346535295248023 263.00787472724915 22.381775885820389 3.8430542200803748 3.7461018860340118 11.147662892937658 105.35226707160473 96.286049798130989 36.716000929474831 18.012601673603058 12.687556743621828 12.171197742223738 243.68275457620621 20.896304845809937 17.582641124725342 12.271715581417082 12.333711028099058 16.33494333922863 22.040199220180511 16.443937242031097 30.497959971427917 13.296453356742861 12.246079027652742 31.954728215932846 5.5836710631847373 11.642439782619475 19.082435190677643 18.753822207450867 22.340209066867828 11.696402788162233 13.852476656436918
leaf_count=18 27 23 24 263 22 26 12 23 67 27 1825 152 16 22 20 740 659 257 31 22 23 420 35 30 21 21 29 38 28 53 23 21 223 39 20 33 32 38 20 24
internal_value=4.13293e-06 0.0574752 0.0709679 0.0737846 -0.00303084 0.0766724 0.0531931 -0.074248 0.0680263 -0.024844 0.077608 0.072496 0.0634905 0.0387859 -0.0780318 0.0786637 0.0791441 0.0791169 -0.0779341 -0.078174 -0.0771587 -0.0784136 -0.0796423 -0.0779085 -0.0782191 -0.0807934 -0.0780962 -0.0772641 -0.078206 -0.0781298 -0.0782984 -0.0786113 0.0774066 0.0788491 -0.07807 -0.0781932 -0.0788717 -0.0793876 -0.0785993 -0.0777348
internal_weight=1261.55 726.506 659.002 646.445 23.4219 623.023 23.8749 67.5031 20.1453 15.3925 599.148 102.547 43.4491 8.02932 535.049 496.601 359.294 59.0978 61.0554 520.551 99.3789 421.172 57.56 87.2077 363.612 33.23 329 38.3751 290.625 274.181 76.0601 48.9112 137.307 15.3048 24.33 31.3285 48.4628 34.6119 29.709 27.1489
internal_count=5447 4521 4397 4374 95 4279 144 124 132 51 4135 688 279 44 926 3447 2484 409 106 899 174 725 98 151 627 56 568 67 501 473 131 84 963 106 42 54 83 59 51 47
is_linear=0
shrinkage=0.05


Tree=8
num_leaves=41
num_cat=1
split_feature=8 8 0 7 7 7 8 1 1 7 1 1 1 1 7 7 1 1 11 7 1 8 8 8 1 1 7 7 1 7 8 0 1 8 8 8 8 7 7 1
split_gain=2090.76 476.738 99.3848 33.8717 6.43668 5.11716 10.4923 4.44699 3.56882 3.36743 2.86501 2.22015 1.72106 1.20214 2.57521 0.155419 0.155073 0.081257 0.0535497 0.154881 0.0289069 0.0270185 0.0248425 0.0232704 0.0113042 0.0102416 0.0200577 0.00886174 0.00787412 0.00809639 0.00720707 0.00697722 0.00246482 0.00371418 0.00437952 0.00183542 0.00261385 0.000679561 0.000598606 8.32761e-05
threshold=295.50000000000006 -43.499999999999993 18.500000000000004 0.025478740668614091 0.067989214175654858 0.99367088607594944 178.50000000000003 21.500000000000004 25.500000000000004 0.34941860465116287 9.5000000000000018 13.500000000000002 52.500000000000007 7.5000000000000009 0.47165775401069526 0.14415584415584418 1.0000000180025095e-35 12.500000000000002 0 0.95505050505050526 2.5000000000000004 408.00000000000006 386.00000000000006 1520.5000000000002 35.500000000000007 53.500000000000007 0.51754926108374399 0.67769272826681248 34.500000000000007 0.5865817091454274 411.50000000000006 19.500000000000004 6.5000000000000009 462.50000000000006 641.00000000000011 -282.49999999999994 -79.499999999999986 0.67470930232558157 0.79361054766734285 27.500000000000004
decision_type=2 2 2 2 2 2 2 2 2 2 2 2 2 2 2 2 2 2 1 2 2 2 2 2 2 2 2 2 2 2 2 2 2 2 2 2 2 2 2 2
left_child=1 9 -3 7 8 13 10 -4 11 -1 -7 -5 24 14 -6 -15 -2 -11 21 20 -20 22 28 25 -10 31 -27 -24 29 -18 -23 -22 37 -34 -35 -19 -37 -32 -31 -25
right_child=16 2 3 4 5 6 -8 -9 12 17 -12 -13 -14 15 -16 -17 18 35 19 -21 23 30 27 39 -26 26 -28 -29 -30 38 32 -33 33 34 -36 36 -38 -39 -40 -41
leaf_value=-0.03760463762815508 -0.070731054590009626 -0.071859324260207455 -0.040509715712736122 0.049372838489379324 0.060440844819545682 0.032313747771649998 -0.025636565450621613 0.021637949837080166 0.081949025879322707 -0.072126794185273541 0.076667675938428409 0.0069158464798451218 0.035022220066260983 0.072821474255085825 0.076909414194610337 0.076463451009726513 -0.077346401215657765 -0.077141908151272698 -0.07360622502662223 -0.071124276972920092 -0.075917393700687133 -0.075325395184687741 -0.079082704744264279 -0.077583403683101668 0.078211714668266541 -0.076218149414870137 -0.073682474326849628 -0.077348533456669658 -0.077809744504670098 -0.075567874158905576 -0.076187572016526262 -0.07718228974934252 -0.077081467336605175 -0.075677773992619254 -0.076652553346612806 -0.075858303811014827 -0.076799922391391037 -0.07566457345761779 -0.076060495337457568 -0.07739767485816379
leaf_weight=6.4094602465629569 14.207652807235716 12.297179222106932 6.4571327567100507 6.4236167073249835 40.286680564284325 4.8117323964834275 3.7218588739633551 5.1936435699462891 3.8223267644643766 12.334217250347136 14.961914762854574 5.9138669520616531 2.8865951150655738 31.358606204390526 57.787366479635239 444.78113979101181 12.647743940353392 14.916367352008818 13.16116441786289 18.039995804429054 214.99567848443985 20.221184134483337 20.482191085815433 11.534758210182192 4.2988608628511429 16.454886257648472 14.825593441724775 11.504512846469877 11.545938670635222 13.523535907268526 13.056939482688906 11.484531760215758 20.61024796962738 18.616901218891144 30.238222122192383 11.310634255409232 21.1542296409607 11.846243798732756 11.335907638072966 12.65882360935211
leaf_count=18 27 23 18 37 262 26 12 25 26 23 106 27 17 219 409 3160 22 26 24 34 380 36 35 20 30 29 27 20 20 24 23 20 36 33 53 20 37 21 20 22
internal_value=4.01675e-06 0.0558147 0.0689227 0.071659 0.0732435 0.0742495 0.0513785 -0.0128057 0.0474873 -0.0720451 0.0658746 0.0290214 0.0681838 0.0751853 0.0701445 0.0762236 -0.0758833 -0.0757418 -0.0760272 -0.0756217 -0.0758967 -0.0766762 -0.0773749 -0.0760036 0.0799707 -0.0758644 -0.0750163 -0.078459 -0.076668 -0.0763165 -0.076182 -0.0759815 -0.0763656 -0.0765186 -0.0762811 -0.0766828 -0.0764719 -0.0759388 -0.0757925 -0.0774862
internal_weight=1234.12 711.127 645.003 632.705 621.055 597.709 23.4955 11.6508 23.3453 66.1249 19.7736 12.3375 11.0078 574.214 98.074 476.14 522.993 59.7154 508.785 313.155 295.115 195.63 81.0398 281.954 8.12119 257.761 31.2805 31.9867 49.0531 37.5072 114.59 226.48 94.3686 69.4654 48.8551 47.3812 32.4649 24.9032 24.8594 24.1936
internal_count=5447 4521 4397 4374 4331 4194 144 43 137 124 132 64 73 4050 671 3379 926 106 899 556 522 343 141 498 56 456 56 55 86 66 202 400 166 122 86 83 57 44 44 42
cat_boundaries=0 1
cat_threshold=1
is_linear=0
shrinkage=0.05


Tree=9
num_leaves=39
num_cat=2
split_feature=8 8 0 7 7 7 8 1 1 7 1 1 1 1 7 1 7 8 8 7 1 8 11 1 1 8 7 0 7 11 8 8 7 8 8 1 8 7
split_gain=1935.3 440.823 91.9032 31.7546 6.31407 4.91208 9.72008 4.0348 3.37783 3.28213 2.76539 2.03247 1.63361 1.20729 2.53278 0.155931 0.154267 0.0809413 0.0498798 0.170415 0.0351621 0.0260388 0.0269874 0.0136452 0.01739 0.0108636 0.00901343 0.00749674 0.00699014 0.00428678 0.0048232 0.00339229 0.00194102 0.00112164 0.00268627 0.000965629 0.00049469 3.65354e-06
threshold=295.50000000000006 -43.499999999999993 18.500000000000004 0.025478740668614091 0.067989214175654858 0.99367088607594944 178.50000000000003 21.500000000000004 25.500000000000004 0.34941860465116287 9.5000000000000018 13.500000000000002 52.500000000000007 7.5000000000000009 0.47165775401069526 1.0000000180025095e-35 0.14415584415584418 -69.499999999999986 350.50000000000006 0.90990259740259749 9.5000000000000018 408.00000000000006 0 53.500000000000007 56.500000000000007 1520.5000000000002 0.044949494949494954 19.500000000000004 0.67769272826681248 1 322.00000000000006 411.50000000000006 0.7956864564007422 -282.49999999999994 -101.49999999999999 12.500000000000002 335.50000000000006 0.48863049095607242
decision_type=2 2 2 2 2 2 2 2 2 2 2 2 2 2 2 2 2 2 2 2 2 2 1 2 2 2 2 2 2 1 2 2 2 2 2 2 2 2
left_child=1 9 -3 7 8 13 10 -4 11 -1 -7 -5 26 14 -6 -2 -15 33 19 20 -17 22 28 25 -25 27 -10 31 -20 30 -22 -23 -24 -11 -35 -27 -31 -38
right_child=15 2 3 4 5 6 -8 -9 12 17 -12 -13 -14 16 -16 18 -18 -19 21 -21 29 23 32 24 -26 35 -28 -29 -30 36 -32 -33 -34 34 -36 -37 37 -39
leaf_value=-0.035959313221096183 -0.068722805001771303 -0.069877274674988554 -0.03870750831835975 0.047281637492818052 0.058429902316877384 0.030894484810635073 -0.024412159014916793 0.020593614771968319 0.079404964140654816 -0.075120154760715666 0.074705403373924936 0.0065749343097500305 0.033608735927888725 0.070851110187458086 0.074927404227650596 -0.071168615879869029 0.074522224299050588 -0.070310173441858595 -0.076871545236957481 -0.067398753536523165 -0.074161600286653556 -0.073487989310167354 -0.073650989252123059 -0.071996252811280761 -0.074189268390704541 -0.07478581236658377 0.076036341127405621 -0.07524339073708991 -0.07531321038056954 -0.074100330017162583 -0.075432374415764808 -0.074170288737468407 -0.074557258801226045 -0.074079406359848651 -0.075028322485920645 -0.07535355531170751 -0.073776537486872906 -0.073735770737971038
leaf_weight=6.3686386197805396 13.899515166878698 12.020699992775915 6.4208141416311246 6.3736139535903948 39.606885269284248 4.7819099724292817 3.7133231461048117 5.1844079494476318 3.8901945203542692 15.118157565593714 14.596421062946318 5.9095899909734726 2.8583276271820068 30.637440890073776 56.385654747486115 10.626560047268866 433.82616436481476 13.141357675194739 20.029224395751957 11.655968844890593 17.684924185276035 19.703540980815887 12.620651662349703 15.567879140377043 21.557353317737579 11.707604169845579 4.0562933534383774 15.711074590682982 11.231554031372069 19.8841952085495 12.923300445079802 241.5014540553093 11.1084668636322 13.804498076438902 16.22316229343415 20.786792814731598 10.995150446891786 10.98857408761978
leaf_count=18 27 23 18 37 262 26 12 25 27 27 106 27 17 219 409 20 3160 25 35 23 32 36 23 29 39 21 29 28 20 36 23 437 20 25 29 37 20 20
internal_value=3.54201e-06 0.0542947 0.0670496 0.069712 0.0712793 0.0722939 0.049694 -0.0122159 0.0456341 -0.0700399 0.0638944 0.0276972 0.0660253 0.0732251 0.0681205 -0.073946 0.0742801 -0.0737637 -0.0740923 -0.0730605 -0.0738546 -0.0743358 -0.0753466 -0.0741754 -0.0732697 -0.0742841 0.0776854 -0.0741826 -0.0763117 -0.0742484 -0.0746981 -0.0741188 -0.0740752 -0.0747689 -0.0745921 -0.075149 -0.0739196 -0.0737562
internal_weight=1205.1 694.918 630.262 618.241 606.636 583.548 23.0917 11.6052 23.088 64.6558 19.3783 12.2832 10.8048 560.456 95.9925 510.184 464.464 58.2872 496.284 94.7587 83.1027 401.526 54.9899 346.536 37.1252 309.41 7.94649 276.916 31.2608 72.4761 30.6082 261.205 23.7291 45.1458 30.0277 32.4944 41.8679 21.9837
internal_count=5447 4521 4397 4374 4331 4194 144 43 137 124 132 64 73 4050 671 926 3379 106 899 174 151 725 98 627 68 559 56 501 55 131 55 473 43 81 54 58 76 40
cat_boundaries=0 1 2
cat_threshold=1 1
is_linear=0
shrinkage=0.05


Tree=10
num_leaves=41
num_cat=2
split_feature=8 8 0 6 1 7 8 1 7 1 7 7 11 1 1 1 0 7 8 0 6 1 6 6 11 8 1 8 1 8 0 1 6 6 6 6 6 7 6 7
split_gain=1794.71 408.328 85.1336 50.3683 6.66294 4.86015 9.02166 4.07894 3.21397 1.29329 2.27968 8.34479 0.986787 0.398001 0.157854 0.0854393 0.0730361 0.0519825 0.181765 0.0470403 0.0451866 0.0192266 0.0193093 0.0139564 0.0152088 0.01863 0.0120348 0.0329149 0.00824294 0.00603611 0.00514227 0.0043887 0.00346411 0.00276771 0.00189822 0.00175614 0.00104231 0.00114196 0.000672111 5.16013e-05
threshold=295.50000000000006 -43.499999999999993 18.500000000000004 1.5000000000000002 25.500000000000004 0.99367088607594944 178.50000000000003 8.5000000000000018 0.34941860465116287 7.5000000000000009 0.47165775401069526 0.45049019607843144 0 39.500000000000007 1.0000000180025095e-35 12.500000000000002 19.500000000000004 0.95505050505050526 390.50000000000006 19.500000000000004 28.500000000000004 2.5000000000000004 25.500000000000004 24.500000000000004 1 411.50000000000006 52.500000000000007 594.00000000000011 14.500000000000002 1520.5000000000002 19.500000000000004 28.500000000000004 54.500000000000007 45.500000000000007 13.500000000000002 51.500000000000007 29.500000000000004 0.90839160839160848 11.500000000000002 0.67470930232558157
decision_type=2 2 2 2 2 2 2 2 2 2 2 2 1 2 2 2 2 2 2 2 2 2 2 2 1 2 2 2 2 2 2 2 2 2 2 2 2 2 2 2
left_child=1 8 -3 4 12 9 7 -7 -1 10 11 -5 -4 -6 -2 -10 20 21 -19 -12 -11 22 -16 24 25 38 30 -28 -9 31 32 -26 -25 -18 -27 -20 39 -38 -23 -17
right_child=14 2 3 5 13 6 -8 28 15 16 19 -13 -14 -15 17 36 33 18 35 -21 -22 23 -24 26 29 34 27 -29 -30 -31 -32 -33 -34 -35 -36 -37 37 -39 -40 -41
leaf_value=-0.034398579561871541 -0.066875378018629625 -0.068059575573261269 -0.036668352847916835 0.064731431030640371 0.022508772833655266 0.015128313987459792 -0.02325074186548156 0.075724194704830744 -0.06817437524794949 0.072874358864907826 0.074999920862341515 -0.013160306713959697 -0.011243713411518343 0.045136201575690815 -0.069625496628226327 -0.072804728638500918 0.071682786183070932 -0.065091295836756297 -0.07317343365767312 0.071987380094512041 0.074185588451341711 -0.074471002953425236 -0.072540386273496335 -0.072467645633156885 -0.072249545679666918 -0.072228129933940746 -0.072971350051214731 -0.069240717574307692 0.072905505533216355 -0.073660724275755485 -0.073377184333297193 -0.072942331234574373 -0.071860900548237114 0.072220581880902732 -0.073144160257671675 -0.072366900891668792 -0.073569845654311114 -0.072845849036949642 -0.07502015590551156 -0.07265571558731361
leaf_weight=6.32582002878189 13.57749657332897 11.731987148523329 7.4900480061769485 37.462619259953499 4.1647649854421607 3.7210513204336229 3.7041071206331244 3.3143777698278418 11.753544792532919 244.35754460096359 20.952435836195946 3.7860324829816809 7.7811042964458483 3.6434870511293411 11.414744153618814 11.368560016155245 94.988086193799973 10.833821818232535 13.059221506118776 33.962655052542686 89.868329554796219 11.100407361984255 11.311648488044737 201.2499715089798 63.290169298648834 10.720380127429964 13.018640935420992 10.83169302344322 11.929372742772101 12.622678339481352 14.20682257413864 35.785732865333557 26.63822203874588 31.977284044027328 11.970205843448637 13.968256235122679 10.955435037612917 10.831234633922575 11.187086641788481 11.881487429141997
leaf_count=18 27 23 22 263 22 19 12 24 23 1825 152 16 29 22 22 21 722 22 24 257 659 20 21 374 118 20 24 21 89 23 26 66 50 241 22 26 20 20 20 22
internal_value=3.06738e-06 0.0529063 0.065339 0.0679339 -0.00450355 0.0708163 0.0481217 0.0620617 -0.068205 0.0717393 0.0664647 0.0575821 -0.0237137 0.0330672 -0.0721924 -0.0719707 0.0728391 -0.0723418 -0.0705632 0.0731368 0.0732269 -0.072493 -0.0710763 -0.0725692 -0.0729436 -0.0737199 -0.0723487 -0.0712771 0.0735184 -0.072631 -0.0724543 -0.0724998 -0.0723967 0.0718182 -0.0727114 -0.0727566 -0.0729614 -0.0732099 -0.0747466 -0.0727286
internal_weight=1174.74 677.951 614.835 603.103 23.0794 580.024 22.6689 18.9648 63.1161 557.355 96.1637 41.2487 15.2712 7.80825 496.787 56.7903 461.191 483.21 37.8613 54.9151 334.226 445.348 22.7264 422.622 156.677 44.9781 265.945 23.8503 15.2438 111.699 242.095 99.0759 227.888 126.965 22.6906 27.0275 45.0367 21.7867 22.2875 23.25
internal_count=5447 4521 4397 4374 95 4279 144 132 124 4135 688 279 51 44 926 106 3447 899 72 409 2484 827 43 784 289 82 495 45 113 207 450 184 424 963 42 50 83 40 40 43
cat_boundaries=0 1 2
cat_threshold=2 1
is_linear=0
shrinkage=0.05


Tree=11
num_leaves=40
num_cat=3
split_feature=8 8 0 6 1 8 8 6 1 8 0 11 6 1 8 1 1 0 8 6 1 8 11 1 5 11 8 6 0 6 6 6 6 8 6 1 6 8 6
split_gain=1667.27 379.15 78.9002 47.5792 6.04714 3.84739 4.17759 2.77617 1.94082 6.42503 1.85969 0.900162 0.882316 0.370348 0.320697 0.96395 0.160687 0.0518699 0.0494852 0.125192 0.0380663 0.017963 0.0172348 0.0127222 0.0181687 0.00732074 0.00707772 0.00504883 0.00489698 0.00366305 0.00179523 0.0012745 0.00108947 0.000871492 0.000757014 0.00062711 0.000379686 0.000300796 0.000166194
threshold=295.50000000000006 -63.999999999999993 18.500000000000004 1.5000000000000002 25.500000000000004 228.50000000000003 274.00000000000006 12.500000000000002 7.5000000000000009 -1.0000000180025095e-35 19.500000000000004 0 39.500000000000007 39.500000000000007 178.50000000000003 38.500000000000007 1.0000000180025095e-35 19.500000000000004 350.50000000000006 42.500000000000007 9.5000000000000018 408.00000000000006 1 53.500000000000007 1.0000000180025095e-35 2 1520.5000000000002 37.500000000000007 19.500000000000004 54.500000000000007 24.500000000000004 30.500000000000004 10.500000000000002 -101.49999999999999 38.500000000000007 12.500000000000002 32.500000000000007 335.50000000000006 40.500000000000007
decision_type=2 2 2 2 2 2 2 2 2 2 2 1 2 2 2 2 2 2 2 2 2 2 1 2 2 1 2 2 2 2 2 2 2 2 2 2 2 2 2
left_child=1 7 -3 4 11 8 -7 -1 9 -5 -11 -4 30 -6 17 -16 -2 -10 19 20 -18 22 27 26 -25 -22 28 -20 29 -23 -8 33 -26 -9 -33 -28 37 -27 -24
right_child=16 2 3 5 13 6 12 31 14 10 -12 -13 -14 -15 15 -17 18 -19 21 -21 25 23 38 24 32 36 35 -29 -30 -31 -32 34 -34 -35 -36 -37 -38 -39 -40
leaf_value=-0.038636393297636504 -0.065167474991560878 -0.066384597762866912 -0.010683422065770148 0.0011399123853704756 0.02148952818796385 -0.00061177313207986736 0.072512209500969024 -0.070860750853675408 0.07157695789880969 0.056909819301814248 0.071616689500799968 -0.034995246725445753 0.038765435997389762 0.043411593606014189 0.072315747103117486 0.037247419701421175 -0.06778862298820458 0.070372757546812978 -0.073140806865181193 -0.065998689395091334 -0.071916551235036041 -0.070902600597759935 -0.07069053570471831 -0.068179242973021956 -0.070327806876006427 -0.070813534920634635 -0.071388220955571263 -0.071781113355884982 -0.071768228835730793 -0.070289400177286618 0.07433159920071615 -0.071930231307058376 -0.070990722283660462 -0.071414049651621264 -0.071363400469942093 -0.071858287625707618 -0.07099943948002034 -0.0705054544430221 -0.070963253915865734
leaf_weight=7.3529822826385489 13.245119899511336 11.434169724583624 7.7797582298517236 3.9957730919122687 4.1447053104639044 3.9948265105485907 2.6170944124460203 12.024328231811525 325.69793300330639 35.064316511154175 55.545558482408524 7.4565925151109704 2.7670542001724243 3.599939301609993 6.6040823161602003 2.7863665074110031 10.062612876296042 123.27033863961697 19.053576529026035 18.243359878659248 19.173813045024872 219.64144641160965 11.980480372905733 10.134519323706625 11.373014986515047 15.146726906299593 11.087030351161959 10.639726459980009 14.891853928565977 27.391697287559509 2.8133543729782104 13.327714979648592 13.620443940162657 17.437355875968933 10.555304825305937 19.70641565322876 10.481749176979063 16.61249452829361 10.466925382614134
leaf_count=20 27 23 29 19 22 18 20 23 2490 242 425 22 17 22 51 17 20 962 35 37 36 420 23 20 22 29 21 20 28 53 21 25 26 33 20 37 20 32 20
internal_value=3.07996e-06 0.0516446 0.0637 0.066229 -0.00429541 0.0690967 0.0413141 -0.0674383 0.0697093 0.0631891 0.0659254 -0.0225815 0.0617454 0.0316796 0.0710551 0.0619102 -0.0705987 0.0712463 -0.0707518 -0.0696956 -0.0706392 -0.0710012 -0.0718632 -0.0708641 -0.069965 -0.0711063 -0.070972 -0.0726536 -0.0708877 -0.0708346 0.0734548 -0.0714083 -0.0706891 -0.0711882 -0.0716797 -0.071689 -0.0707385 -0.0706524 -0.0708177
internal_weight=1143.22 660.27 599.572 588.138 22.981 565.157 12.1923 60.6977 552.964 94.6056 90.6099 15.2364 8.1975 7.74464 458.359 9.39045 482.953 448.968 469.708 89.7208 71.4774 379.987 52.1407 327.846 35.128 61.4148 292.718 29.6933 261.925 247.033 5.43045 53.3447 24.9935 29.4617 23.883 30.7934 42.241 31.7592 22.4474
internal_count=5447 4521 4400 4377 95 4282 76 121 4206 686 667 51 58 44 3520 68 926 3452 899 174 137 725 98 627 68 117 559 55 501 473 41 101 48 56 45 58 81 61 43
cat_boundaries=0 1 2 3
cat_threshold=1 1 1
is_linear=0
shrinkage=0.05


Tree=12
num_leaves=63
num_cat=11
split_feature=10 0 10 10 11 10 11 10 6 7 6 1 11 1 6 6 11 10 1 1 7 1 1 1 6 11 6 1 1 1 1 1 0 7 6 1 0 1 6 1 7 6 7 6 1 1 1 7 0 7 1 7 7 1 6 7 6 6 6 7 1 7
split_gain=463.083 243.924 65.341 50.1401 38.2721 82.0583 26.98 25.0323 28.5852 18.4487 16.7878 15.7829 15.6793 17.2765 13.0546 10.4354 12.9499 39.3656 16.1542 9.39617 7.65113 7.61496 5.86553 5.73713 9.63232 5.7226 12.6504 8.00915 6.79175 5.10592 8.13764 6.17073 5.1014 5.94419 4.98798 9.66836 4.09896 8.90413 17.9514 3.20811 4.47333 3.08408 2.79799 2.7331 2.41784 2.23812 1.88238 10.7606 10.4936 2.54567 3.27821 1.72647 1.64273 1.62775 4.99021 1.36365 1.30257 1.11398 0.879798 0.863737 0.691206 0.647441
threshold=0 19.500000000000004 1 2 3 4 5 6 29.500000000000004 0.50316455696202544 52.500000000000007 29.500000000000004 7 25.500000000000004 22.500000000000004 1.5000000000000002 8 9 40.500000000000007 21.500000000000004 0.65184453227931505 6.5000000000000009 22.500000000000004 19.500000000000004 18.500000000000004 10 24.500000000000004 41.500000000000007 55.500000000000007 27.500000000000004 4.5000000000000009 43.500000000000007 18.500000000000004 0.20761494252873566 52.500000000000007 35.500000000000007 18.500000000000004 49.500000000000007 39.500000000000007 18.500000000000004 0.52985739750445637 3.5000000000000004 0.90661337209302328 56.500000000000007 15.500000000000002 5.5000000000000009 32.500000000000007 0.55848153214774288 18.500000000000004 0.69104278074866321 16.500000000000004 0.78471275559883169 0.57601438109912706 17.500000000000004 43.500000000000007 0.67769272826681248 46.500000000000007 47.500000000000007 57.500000000000007 0.19625350140056025 57.500000000000007 0.96039215686274526
decision_type=9 2 9 9 1 9 1 9 2 2 2 2 1 2 2 2 1 9 2 2 2 2 2 2 2 1 2 2 2 2 2 2 2 2 2 2 2 2 2 2 2 2 2 2 2 2 2 2 2 2 2 2 2 2 2 2 2 2 2 2 2 2
left_child=1 3 6 25 5 14 39 8 -6 -8 -4 -10 -12 -14 29 22 -17 18 21 58 -13 51 -2 55 -25 26 32 53 -29 30 -5 -31 -1 -34 46 -36 -9 44 -39 40 -3 -7 -41 -21 -38 -43 49 48 -48 59 -51 -18 -35 57 -55 -23 60 -28 -16 -27 -19 -47
right_child=15 2 10 4 7 41 9 36 11 -11 12 20 13 -15 19 16 17 56 -20 43 -22 23 -24 24 -26 34 27 28 -30 31 -32 -33 33 52 35 -37 37 38 -40 42 -42 45 -44 -45 -46 61 47 -49 -50 50 -52 -53 -54 54 -56 -57 -58 -59 -60 -61 -62 -63
leaf_value=-0.062753258504752385 -0.018152323609403286 -0.011401176169022309 0.069336053054142283 -0.0382394225093734 0.071417709361597942 0.018112663097047892 -0.023380476874590456 -0.070003478258188881 -0.069010784698374211 0.070948580283371074 0.069322669964032288 -0.021780231553428495 -0.038203248014728942 0.068517352214985602 -0.05841574982113517 0.069531288990436424 0.017239630734731209 0.069669013570104896 0.068695449620132784 -0.012366065275032494 0.070753835778314719 -0.057397971616212767 0.053717999794092711 0.057107018991401415 -0.025819532831066194 -0.055710695295183577 -0.068980194010148141 0.03613927748756026 -0.04642272321084065 -0.036476256356279456 0.046974631585832899 0.020673097813261904 0.033852700327392939 -0.012866864156524297 0.028672293940192717 -0.069425469920669544 -0.053642058864248277 0.07186087825256747 -0.043331276736659041 0.0049891777110581854 -0.064149705353716932 0.030666765155981043 -0.046924525114899557 -0.045230427812811155 -0.039586008327456519 0.069532016014955358 -0.065032882732067573 -0.065386982987276521 0.0058004670398392908 -0.021443589835610941 -0.059756252384755085 0.071257749912975857 -0.042967567515762195 -0.030107269562718975 -0.067170160364843329 -0.02839540539228648 0.03937593161481346 -0.051672532999818749 -0.038595515915504336 -0.067924483026408161 0.046767122161163105 0.044339660419729719
leaf_weight=5.1265613138675681 7.3107205182313901 5.1457717716693905 84.198607176542282 3.9007481485605231 12.477778851985933 4.0580097883939734 9.2150216102600115 12.838209629058836 10.046788930892946 11.847673259675501 12.137922331690788 4.6921546310186368 12.033499270677568 5.5372920334339133 31.747545778751373 123.12805326282978 3.4879195839166632 98.381590068340302 7.5332997515797606 28.720453426241875 4.2638945728540421 7.5812063366174725 4.6411242187023163 5.0899700969457653 11.222379505634306 18.612905561923981 28.709941893815994 4.518853083252905 5.5505723506212234 13.361750699579718 9.9433629065752012 7.3061038032174102 6.4471438527107265 19.251855388283733 4.980574965476988 5.0671327710151672 48.06298591196537 5.1273482590913764 9.9366353154182416 5.5522003918886167 18.360348552465439 4.5682687908411017 4.8739433884620667 8.1133699864149076 84.177006989717484 35.239156976342201 8.5920352339744568 40.571109354496002 13.356886833906174 8.3403192609548586 16.890341997146606 2.5683893784880638 5.9284394532442084 17.854960292577744 18.483829483389854 8.7086071968078596 3.8776182457804671 13.749227941036223 6.7977776527404776 65.1121526658535 3.408771499991416 2.7493436709046355
leaf_count=11 26 22 676 12 97 23 35 25 20 94 97 18 38 45 77 988 20 787 61 121 33 19 29 36 42 46 58 29 16 44 66 42 39 83 30 10 125 39 29 28 40 28 14 24 261 280 18 86 65 31 39 20 18 62 38 30 27 36 20 132 24 18
internal_value=2.83501e-06 -0.0190848 0.034261 -0.0331264 -0.0182775 -0.000458283 -0.0124988 -0.033785 0.00957768 0.0296792 0.0532585 -0.025988 0.0256193 -0.00457112 -0.0238339 0.0536245 0.0574812 0.0477111 0.00140835 -0.0376636 0.0222744 -0.0113394 0.00975626 -0.0209039 5.61797e-05 -0.0478051 -0.0411575 -0.0513615 -0.0093714 -0.000533826 0.0229645 -0.0162739 -0.0164852 -0.0089855 -0.0550391 -0.0207991 -0.0403854 -0.0405457 -0.00412317 -0.0423634 -0.0526024 0.0492053 -0.0192791 -0.0196051 -0.0446947 0.0637325 -0.0570454 -0.0501297 -0.0219277 -0.0610138 -0.0470915 0.0401479 -0.0199538 -0.0567274 -0.0489594 -0.0418931 0.0619554 -0.0633756 -0.0549203 -0.0652092 0.0689021 0.0677088
internal_weight=1111.12 824.176 168.902 655.274 348.129 156.506 54.995 191.623 31.4806 21.0627 113.907 19.0028 29.7087 17.5708 109.891 286.94 274.988 151.86 46.1918 75.3791 8.95605 38.6585 11.9518 32.6022 16.3123 307.145 125.621 88.8674 10.0694 34.512 13.8441 20.6679 36.754 31.6274 181.523 10.0477 160.142 147.304 15.064 33.9323 23.5061 46.6148 10.4261 36.8338 132.24 42.5568 171.476 62.52 21.9489 108.956 25.2307 6.05631 25.1803 78.798 36.3388 16.2898 105.668 42.4592 38.5453 83.7251 101.79 37.9885
internal_count=5447 3338 1089 2249 1402 755 233 647 168 129 856 71 180 83 406 2109 2054 1066 228 242 51 167 55 127 78 847 390 239 45 164 78 86 151 140 457 40 479 454 68 104 62 349 42 145 386 326 417 169 83 248 70 40 101 194 100 49 838 94 97 178 811 298
cat_boundaries=0 2 3 4 5 7 8 9 10 11 12 13
cat_threshold=4211344924 3 553910272 2466252288 1 1610612740 2 1 536870916 1 1 67174400 1
is_linear=0
shrinkage=0.05


Tree=13
num_leaves=47
num_cat=2
split_feature=8 8 0 6 7 8 7 7 6 11 0 8 6 8 7 8 8 7 6 7 8 11 6 6 8 7 6 6 7 6 8 8 8 8 6 8 7 8 6 6 7 7 8 6 6 8
split_gain=1473.26 337.442 70.4253 44.0785 4.72095 7.80013 3.9478 3.43788 2.81295 1.02955 1.83329 0.635369 1.62834 0.291774 1.48642 0.216595 0.169119 0.345264 0.0641835 0.0518702 0.0166854 0.018607 0.0117671 0.0298049 0.0091011 0.0089552 0.00852369 0.00593204 0.0235964 0.0184337 0.00708056 0.00583251 0.00395453 0.00335076 0.00540708 0.00525078 0.00329016 0.00260404 0.00175437 0.00168366 0.00155067 0.00127389 0.000976451 0.000602306 0.000326631 0.000184178
threshold=295.50000000000006 -63.999999999999993 18.500000000000004 1.5000000000000002 0.99367088607594944 178.50000000000003 0.050316455696202543 0.025478740668614091 12.500000000000002 0 19.500000000000004 -27.499999999999996 30.500000000000004 228.50000000000003 0.64346246973365628 1.0000000180025095e-35 350.50000000000006 0.79873417721519002 42.500000000000007 0.020008003201280513 408.00000000000006 1 17.500000000000004 25.500000000000004 1520.5000000000002 0.7835585585585586 37.500000000000007 24.500000000000004 0.52223320158102771 27.500000000000004 705.50000000000011 594.00000000000011 606.50000000000011 426.00000000000006 33.500000000000007 462.50000000000006 0.81302966101694929 319.50000000000006 29.500000000000004 30.500000000000004 0.29478609625668456 0.90661337209302328 -101.49999999999999 20.500000000000004 15.500000000000002 1294.5000000000002
decision_type=2 2 2 2 2 2 2 2 2 1 2 2 2 2 2 2 2 2 2 2 2 1 2 2 2 2 2 2 2 2 2 2 2 2 2 2 2 2 2 2 2 2 2 2 2 2
left_child=1 8 -3 6 11 9 7 19 -1 39 -11 12 -5 15 -15 -13 17 22 -19 -4 21 26 40 -24 27 -14 -18 30 29 -29 31 43 -33 34 -30 -35 -23 -25 42 -6 -2 -40 -10 -22 -26 -32
right_child=16 2 3 4 5 -7 -8 -9 38 10 -12 13 25 14 -16 -17 20 18 -20 -21 24 36 23 37 44 -27 -28 28 33 -31 45 32 -34 35 -36 -37 -38 -39 41 -41 -42 -43 -44 -45 -46 -47
leaf_value=-0.035813988635273755 -0.068616083296340766 -0.064137751844196331 -0.013936038821276697 0.033932423335171789 0.068580524869512299 -0.02258239155353723 -0.045989437578248617 0.034059502972189258 -0.068542388412419622 0.025917027555675626 0.071952601107955899 0.067408956829423702 0.075000787321202605 0.02999856756931818 0.072750133050686533 0.069675939003636486 -0.070885700711146873 -0.063596803667131024 -0.058296567339507915 -0.0071518976133819806 -0.068567533717679832 -0.06782365548835477 -0.065193103656638704 -0.068827206639987037 -0.069163505390046606 0.071126952047580821 -0.069099845513386188 -0.068198780605821657 -0.069102036534148314 -0.065108300867444568 -0.068194868146308943 -0.070299781075306697 -0.069013620645232282 -0.069096601621278605 -0.067788119591111556 -0.068380102092637174 -0.069045756370157516 -0.067896957099062655 -0.069811438484368091 0.070031126549696066 -0.069436201698161767 -0.069087554318477615 -0.069167115123833348 -0.068996375803230675 -0.069494766984152356 -0.067937538093997066
leaf_weight=7.1993708312511435 13.413946956396105 10.960064388811587 6.1188650280237251 4.7865524813532812 3.0560397356748581 3.6750749498605719 4.551921233534812 6.8449429869651786 10.429626852273941 5.1060895845294034 3.751594603061676 343.54882743954659 3.0100083872675896 2.975643225014208 6.4194498360157013 151.97318638116121 19.869475364685062 11.290819555521013 11.55952727794647 5.2221401333808899 31.78847199678421 12.190769344568254 9.9894744455814344 14.499956846237184 14.112095892429354 2.9579543918371201 10.0666306912899 9.3499330580234545 10.040881603956221 9.9700910300016385 18.209050536155701 11.882938027381897 12.023748457431793 35.207821547985077 35.562348395586014 93.410226881504059 10.045616209506987 15.634567350149153 14.314942747354509 5.7903867214918137 10.106314063072203 10.561761468648909 15.62556192278862 11.028242379426954 15.742546468973158 11.248971313238146
leaf_count=20 27 23 23 30 25 12 15 37 21 32 29 2780 23 20 49 1213 38 24 26 20 64 25 21 29 28 23 20 19 20 21 37 23 24 70 73 189 20 32 28 46 20 21 31 22 31 23
internal_value=8.66266e-06 0.0496948 0.0613835 0.0638411 0.0667281 0.0437047 -0.00434631 0.00607691 -0.0650686 0.0574648 0.045415 0.0676826 0.0556569 0.0679387 0.0592097 0.0681042 -0.068179 -0.0661876 -0.0609155 -0.0108122 -0.0686423 -0.0694714 -0.0680805 -0.06756 -0.068507 0.0730808 -0.0702852 -0.0684213 -0.0682618 -0.0666039 -0.0687423 -0.0690273 -0.0696529 -0.0684457 -0.0680774 -0.0685762 -0.0683758 -0.0683446 -0.0692038 0.06953 -0.0689685 -0.0695041 -0.068917 -0.068678 -0.0693382 -0.0680966
internal_weight=1087.12 628.88 570.749 559.789 537.051 21.3792 22.7379 18.1859 58.1313 17.7041 8.85768 515.672 10.7545 504.917 9.39509 495.522 458.244 86.4946 22.8503 11.341 371.75 52.1725 63.6443 40.124 319.577 5.96796 29.9361 289.723 193.541 19.32 96.1814 66.7234 23.9067 174.221 45.6032 128.618 22.2364 30.1345 50.9319 8.84643 23.5203 24.8767 26.0552 42.8167 29.8546 29.458
internal_count=5447 4521 4400 4377 4282 144 95 80 121 132 61 4138 76 4062 69 3993 926 179 50 43 747 103 129 82 644 46 58 585 392 40 193 133 47 352 93 259 45 61 101 71 47 49 52 86 59 60
cat_boundaries=0 1 2
cat_threshold=1 1
is_linear=0
shrinkage=0.05


Tree=14
num_leaves=41
num_cat=3
split_feature=8 8 0 6 1 8 8 6 1 8 0 6 11 1 8 1 1 1 0 8 11 6 1 8 11 1 1 0 6 8 0 8 6 6 1 1 1 6 1 6
split_gain=1373.57 314.184 65.6625 42.2447 4.9115 3.57581 3.49349 2.62811 1.8324 4.85458 1.84707 0.839999 0.705869 0.346891 0.303484 0.929458 0.176189 0.0904108 0.0645885 0.0543065 0.128296 0.178283 0.0228435 0.0133214 0.0152662 0.0120038 0.0277358 0.00713784 0.00685967 0.00605391 0.00625582 0.00392827 0.00254634 0.00191958 0.00185805 0.00151409 0.000565856 0.000475982 0.000443479 8.44161e-05
threshold=295.50000000000006 -43.499999999999993 18.500000000000004 1.5000000000000002 25.500000000000004 228.50000000000003 274.00000000000006 12.500000000000002 7.5000000000000009 -1.0000000180025095e-35 19.500000000000004 39.500000000000007 0 39.500000000000007 178.50000000000003 39.500000000000007 1.0000000180025095e-35 12.500000000000002 19.500000000000004 350.50000000000006 1 32.500000000000007 19.500000000000004 408.00000000000006 2 52.500000000000007 55.500000000000007 19.500000000000004 25.500000000000004 1520.5000000000002 19.500000000000004 705.50000000000011 12.500000000000002 44.500000000000007 10.500000000000002 19.500000000000004 12.500000000000002 40.500000000000007 35.500000000000007 22.500000000000004
decision_type=2 2 2 2 2 2 2 2 2 2 2 2 1 2 2 2 2 2 2 2 1 2 2 2 1 2 2 2 2 2 2 2 2 2 2 2 2 2 2 2
left_child=1 7 -3 4 12 8 -7 -1 9 -5 -11 34 -4 -6 18 -16 -2 -9 -10 20 28 22 -22 24 27 29 -27 -21 -18 30 31 -25 -28 -30 -8 -19 -31 -26 -37 -24
right_child=16 2 3 5 13 6 11 17 14 10 -12 -13 -14 -15 15 -17 19 35 -20 23 21 -23 39 25 37 26 32 -29 33 36 -32 -33 -34 -35 -36 38 -38 -39 -40 -41
leaf_value=-0.034372366710944617 -0.061021707360850885 -0.062744393920352637 -0.010097515416024817 -0.0018541979373607733 0.018783635217053035 -2.9405003455537574e-05 0.068866644689317788 -0.062605673498190059 0.068097673067816666 0.052617351898999791 0.067799095727639314 0.034880546979641137 -0.031707637053428134 0.040225898277135561 0.068803758891881825 0.032978758490052336 -0.068985535835813058 -0.067508925580925513 0.066692091567518513 -0.069531319085477536 -0.063888271821658765 -0.058305048158390882 -0.066739097758229546 -0.067356208323765196 -0.066884208246172208 -0.064370676739318941 -0.066698293668773057 -0.067865937795613868 -0.067155949476462071 -0.067753303864275513 -0.068311041640000944 -0.066902757093782461 -0.067745682184785508 -0.067941564356120532 0.070790518221987772 -0.068329690993051223 -0.068218148524335762 -0.067366577075182663 -0.067897932710260553 -0.066942593883581536
leaf_weight=7.1280973851680747 12.276096329092978 10.65113742649555 7.777048110961915 3.1039425730705252 4.0801273584365836 3.9600952416658384 2.6026161909103394 10.162410274147986 300.31474783271551 33.045267269015312 50.884586468338966 2.621134988963604 7.3500650674104699 3.5078874081373215 6.1734697893261892 2.5617926269769669 10.52546367049217 15.951543837785719 112.28990364074707 17.283642172813416 9.6710825115442294 10.437726475298403 10.40518641471863 153.37079718708992 10.918575227260591 11.558761164546011 9.4410293400287646 10.249391227960588 17.224873512983326 10.217436522245409 13.826897382736204 69.361904919147491 15.058331638574598 14.173568248748778 2.4237678572535515 13.330888569355013 18.223545998334885 9.6200684607028943 10.738255470991133 9.9884420335292798
leaf_count=20 27 23 29 16 22 18 21 22 2490 242 425 17 22 22 52 16 21 33 962 34 21 24 22 319 23 25 20 21 36 21 28 146 31 29 20 27 37 20 22 21
internal_value=8.20235e-06 0.0486583 0.0602004 0.0626134 -0.00413093 0.065529 0.0380891 -0.0627819 0.0661556 0.0595508 0.0618217 0.0578279 -0.0205976 0.0286962 0.0675199 0.0582974 -0.0669283 -0.0668173 0.0677151 -0.0670963 -0.065942 -0.0639351 -0.0658897 -0.0673689 -0.0681418 -0.0672455 -0.0663896 -0.0689114 -0.0678809 -0.0673619 -0.0672791 -0.067215 -0.0673421 -0.0675106 0.0697944 -0.0678867 -0.0680512 -0.0671101 -0.0681371 -0.0668388
internal_weight=1054.49 610.659 553.348 542.696 22.7151 519.981 11.6076 57.3112 508.374 87.0338 83.9299 7.64752 15.1271 7.58801 421.34 8.73526 443.833 50.1831 412.605 431.557 82.4263 40.5024 30.0647 349.13 48.0717 301.059 36.0581 27.533 41.9239 265.001 236.56 222.733 24.4994 31.3984 5.02638 40.0207 28.441 20.5386 24.0691 20.3936
internal_count=5447 4521 4397 4374 95 4279 76 124 4203 683 667 58 51 44 3520 68 926 104 3452 899 174 88 64 725 98 627 76 55 86 551 493 465 51 65 41 82 58 43 49 43
cat_boundaries=0 1 2 3
cat_threshold=1 1 1
is_linear=0
shrinkage=0.05


Tree=15
num_leaves=46
num_cat=2
split_feature=8 8 6 7 8 1 1 1 6 1 7 7 7 7 7 1 8 7 1 7 6 11 1 7 8 8 1 6 11 6 1 6 8 8 1 8 7 8 8 8 6 6 7 8 1
split_gain=1282.17 292.999 37.3168 6.14724 6.0506 4.50045 4.4815 3.06216 2.80427 2.27901 2.20865 1.23988 1.8364 1.19142 3.09069 1.12275 2.56833 1.93968 1.5501 1.98285 0.669286 0.252731 0.181347 0.0665042 0.222468 0.0358092 0.0218045 0.0191546 0.0119476 0.0161479 0.0138968 0.0191205 0.0071899 0.00687475 0.00533009 0.00389464 0.00380868 0.0027904 0.00143666 0.00284948 0.0012655 0.00120539 0.000919423 0.000622294 4.50945e-07
threshold=295.50000000000006 -63.999999999999993 1.5000000000000002 0.99367088607594944 178.50000000000003 30.500000000000004 55.500000000000007 8.5000000000000018 12.500000000000002 50.500000000000007 0.025478740668614091 0.69732205778717427 0.87596153846153857 0.37271518777002333 0.24190177638453506 7.5000000000000009 -17.499999999999996 0.47165775401069526 45.500000000000007 0.14415584415584418 33.500000000000007 0 1.0000000180025095e-35 0.95505050505050526 390.50000000000006 137.50000000000003 2.5000000000000004 25.500000000000004 1 33.500000000000007 53.500000000000007 27.500000000000004 1520.5000000000002 408.00000000000006 18.500000000000004 386.00000000000006 0.62605932203389847 705.50000000000011 641.00000000000011 408.00000000000006 51.500000000000007 30.500000000000004 0.90219990435198483 -101.49999999999999 27.500000000000004
decision_type=2 2 2 2 2 2 2 2 2 2 2 2 2 2 2 2 2 2 2 2 2 1 2 2 2 2 2 2 1 2 2 2 2 2 2 2 2 2 2 2 2 2 2 2 2
left_child=1 8 5 6 7 10 15 -5 -1 34 -3 13 21 14 -8 16 -4 -18 25 -20 -15 -13 -2 26 -25 -17 27 -24 29 33 32 -32 37 35 -9 -28 -35 -30 39 -31 -26 43 -43 -10 -34
right_child=22 2 3 4 -6 -7 11 9 41 -11 -12 12 -14 20 -16 18 17 -19 19 -21 -22 -23 23 24 40 -27 28 -29 30 38 31 -33 44 36 -36 -37 -38 -39 -40 -41 -42 42 -44 -45 -46
leaf_value=-0.032993506507095288 -0.059699602425735993 -0.034369480812119151 0.01176203121992667 0.0057459293064846791 -0.022973998893442399 0.033626798416286845 0.056759005769492048 0.068918074812072225 -0.066241255266316232 0.015676014971385301 0.0020388029839464878 0.011600094130207739 0.067366712862007946 0.069767524541466064 -0.0083097961203405096 0.066479480826825796 0.051609664714438036 0.067091679210274924 0.034054410326565518 0.06134097633692679 0.040117182666427567 0.029273741285529904 -0.062955835506079874 -0.05731828378752625 -0.066787872529096071 0.06829259676551544 -0.067125163835566451 -0.066084387599487135 -0.066171696602307331 -0.066342203169624733 -0.06615934728892503 -0.063415564043891509 -0.067033908851401869 -0.066278275673139528 0.066610506750613127 -0.068254441948768757 -0.067359140473141829 -0.065747857408175889 -0.066622018251356885 -0.065646149783361307 -0.066051730675770776 -0.067329673440316942 -0.066670180034603552 -0.066736188876416122 -0.067048927780550494
leaf_weight=7.0565445572137824 11.929391562938688 8.8270816504955345 2.7974132075905791 3.5140945315361085 3.6693057864904395 5.8935282230377188 6.4391067549586349 3.6420397013425809 10.711441040039062 2.6148491054773322 7.887675628066062 4.7117833122611037 2.6008696854114524 8.3058453574776632 2.5467236489057541 284.8977589532733 35.330642193555832 47.336418353021145 7.5793100595474234 54.761930756270885 2.4689866229891768 3.5443675741553298 9.8469324111938494 9.4511495158076269 11.345496982336046 30.110342621803284 14.793559014797211 9.7236178219318372 129.56591239571571 27.559279501438141 13.904052883386614 11.686173796653746 9.5415582358837145 21.883977830410004 7.997662752866745 15.777885019779205 12.987035036087034 55.453899592161179 9.8879138231277448 31.520334333181381 12.027275532484053 12.019101381301882 9.4323138594627363 15.601197063922882 10.495377600193022
leaf_count=20 27 26 14 19 12 36 52 30 23 16 33 28 22 73 13 2469 272 405 53 466 18 24 22 22 24 250 31 21 279 59 30 26 20 47 69 32 27 121 21 69 26 25 20 33 22
internal_value=7.91975e-06 0.0476989 0.05893 0.0616908 0.0354798 -0.00394193 0.0628296 0.0475508 -0.0624149 0.0578567 -0.0171885 0.0443034 0.0307291 0.0517615 0.0383175 0.0640552 0.0588804 0.0604749 0.0652272 0.0580235 0.0629733 0.0191874 -0.0657781 -0.0659518 -0.0637915 0.0666528 -0.0661362 -0.0645103 -0.0662234 -0.0665981 -0.066005 -0.0649064 -0.0661421 -0.0671607 0.0673325 -0.067708 -0.0666808 -0.0660447 -0.0660642 -0.0659708 -0.0664091 -0.0667615 -0.0670397 -0.0665347 -0.0670418
internal_weight=1021.68 592.298 537.478 514.869 21.438 22.6083 493.431 17.7686 54.8206 14.2546 16.7148 30.6177 10.857 19.7607 8.98583 462.814 85.4645 82.6671 377.349 62.3412 10.7748 8.25615 429.381 417.451 32.8239 315.008 384.628 19.5706 365.057 134.41 230.647 25.5902 205.057 65.4425 11.6397 30.5714 34.871 185.02 68.9675 59.0796 23.3728 47.7641 21.4514 26.3126 20.0369
internal_count=5447 4521 4400 4305 146 95 4159 134 121 115 59 230 74 156 65 3929 691 677 3238 519 91 52 926 899 72 2719 827 43 784 286 498 56 442 137 99 63 74 400 149 128 50 101 45 56 42
cat_boundaries=0 1 2
cat_threshold=1 1
is_linear=0
shrinkage=0.05


Tree=16
num_leaves=37
num_cat=0
split_feature=8 8 0 7 1 7 8 7 1 7 1 8 7 7 7 1 7 7 8 7 1 7 1 1 1 7 1 8 0 8 8 8 8 8 7 7
split_gain=1197.33 272.942 61.4058 22.5478 13.8598 4.47929 6.74956 4.19671 4.07229 2.8065 1.44079 2.93453 1.93839 0.968479 0.849368 0.187158 0.16746 0.068337 0.225047 0.028959 0.0213869 0.0183628 0.00958158 0.0333258 0.00690149 0.0115049 0.00404208 0.00236963 0.00271876 0.00208139 0.00192737 0.00158044 0.000772442 0.00105428 0.000297311 3.79072e-06
threshold=295.50000000000006 -63.999999999999993 18.500000000000004 0.05634920634920635 30.500000000000004 0.99367088607594944 178.50000000000003 0.025478740668614091 8.5000000000000018 0.38208556149732625 7.5000000000000009 -24.499999999999996 0.47165775401069526 0.067989214175654858 0.044949494949494954 1.0000000180025095e-35 0.14415584415584418 0.95505050505050526 390.50000000000006 0.031009615384615389 2.5000000000000004 0.46225071225071229 52.500000000000007 54.500000000000007 25.500000000000004 0.39852941176470597 18.500000000000004 1520.5000000000002 19.500000000000004 434.50000000000006 1520.5000000000002 599.50000000000011 -76.999999999999986 -195.49999999999997 0.98397435897435914 0.7154761904761906
decision_type=2 2 2 2 2 2 2 2 2 2 2 2 2 2 2 2 2 2 2 2 2 2 2 2 2 2 2 2 2 2 2 2 2 2 2 2
left_child=1 9 -3 4 7 10 8 -4 -7 -1 11 -5 -13 -12 -9 -2 -15 20 -19 -6 21 -17 24 -24 27 29 -10 28 -22 -26 -27 -25 33 -11 -20 -35
right_child=15 2 3 5 19 6 -8 14 26 32 13 12 -14 16 -16 17 -18 18 34 -21 22 -23 23 31 25 30 -28 -29 -30 -31 -32 -33 -34 35 -36 -37
leaf_value=-0.031672826764159195 -0.058451598124419024 -0.06205145764774609 -0.032848262812096365 0.0045774869513733416 0.075263733784100145 0.0054683108152964524 -0.021885677472213882 0.026036919687110756 0.06768207789316108 -0.065881397669961414 0.041044079886697116 0.050236967644280588 0.066018182050547589 0.061271642152450713 -0.0033872211220743438 -0.064951593079614053 0.065488838974143523 -0.056073028455432196 -0.065206818953883611 0.069121387816712718 -0.06496166775626136 -0.061834038453636754 -0.061702390512851452 -0.065531051807482518 -0.066878542365273685 -0.065232523870493747 0.065695294512235325 -0.065690117652367333 -0.065745147592984818 -0.066002106691585793 -0.065943833136716618 -0.064805676081483493 -0.065970788645043729 -0.065266295323050796 -0.065576735829874708 -0.065312124000384705
leaf_weight=6.9850950092077246 11.583695121109484 10.484789468348024 8.7754065692424827 2.5250005796551696 3.5553941279649726 3.5080349594354692 3.6594378054141989 6.1416201218962652 3.5260633602738372 12.879976987838743 4.1928091198205939 33.779877595603466 45.894688338041306 25.22271990031004 4.0832046121358871 9.80813977122307 352.804771669209 9.1847770512104052 13.487899452447893 4.1690047904849052 156.48100769519806 9.1110196560621244 8.6662175506353361 17.253632307052616 14.227522015571596 93.131804347038269 9.3441247865557653 14.180465191602705 11.915918469429014 12.930895537137983 10.608077764511107 13.295824378728865 15.235289335250853 9.0183075666427666 9.0941213965415937 9.0304448306560499
leaf_count=20 27 23 26 12 26 19 12 34 30 28 31 265 406 219 20 22 3160 22 30 34 351 21 20 38 30 207 83 31 26 28 23 30 33 20 20 20
internal_value=6.79062e-06 0.0467316 0.0577291 0.0601859 0.0154756 0.0626522 0.0395061 -0.007483 0.0532231 -0.0612101 0.0636509 0.0576456 0.0593274 0.0649424 0.0142866 -0.0647178 0.0652075 -0.0648977 -0.0626719 0.0719486 -0.065088 -0.0634503 -0.0651759 -0.064439 -0.065268 -0.0655451 0.0662396 -0.0650694 -0.0650171 -0.0664612 -0.0653053 -0.0652154 -0.0656794 -0.0655358 -0.0653558 -0.0652892
internal_weight=989.777 574.816 521.667 511.182 26.7246 484.458 20.0377 19.0002 16.3782 53.1491 464.42 82.1996 79.6746 382.22 10.2248 414.961 378.027 403.377 31.7668 7.7244 371.611 18.9192 352.691 39.2157 313.476 130.898 12.8702 182.577 168.397 27.1584 103.74 30.5495 46.164 30.9287 22.582 18.0488
internal_count=5447 4521 4400 4377 140 4237 144 80 132 121 4093 683 671 3410 54 926 3379 899 72 60 827 43 784 88 696 288 113 408 377 58 230 68 101 68 50 40
is_linear=0
shrinkage=0.05


Tree=17
num_leaves=37
num_cat=0
split_feature=8 8 0 7 1 7 8 1 7 7 1 8 7 7 7 1 7 7 8 7 1 7 1 1 1 7 1 8 8 0 8 8 8 8 7 7
split_gain=1119.88 254.84 57.3294 21.8321 12.9329 4.38517 6.30662 3.93529 3.80999 2.81296 1.48422 2.82803 1.96371 0.978848 0.771864 0.193574 0.173051 0.0704374 0.228485 0.0235723 0.0211306 0.0187839 0.0096015 0.0173788 0.00530896 0.00862023 0.00337597 0.00233691 0.00194477 0.00223132 0.00174563 0.000632927 0.000866444 0.00034176 0.00024552 3.13797e-06
threshold=295.50000000000006 -63.999999999999993 18.500000000000004 0.05634920634920635 30.500000000000004 0.99367088607594944 178.50000000000003 8.5000000000000018 0.025478740668614091 0.38208556149732625 7.5000000000000009 -24.499999999999996 0.47165775401069526 0.067989214175654858 0.044949494949494954 1.0000000180025095e-35 0.14415584415584418 0.95505050505050526 390.50000000000006 0.037505860290670427 2.5000000000000004 0.46225071225071229 53.500000000000007 56.500000000000007 25.500000000000004 0.43826219512195125 14.500000000000002 434.50000000000006 1520.5000000000002 19.500000000000004 1520.5000000000002 -76.999999999999986 -195.49999999999997 502.00000000000006 0.98397435897435914 0.7154761904761906
decision_type=2 2 2 2 2 2 2 2 2 2 2 2 2 2 2 2 2 2 2 2 2 2 2 2 2 2 2 2 2 2 2 2 2 2 2 2
left_child=1 9 -3 4 8 10 7 -7 -4 -1 11 -5 -13 -12 -10 -2 -15 20 -19 -6 21 -17 24 -24 28 27 -9 -26 29 -22 -27 32 -11 -25 -20 -34
right_child=15 2 3 5 19 6 -8 26 14 31 13 12 -14 16 -16 17 -18 18 34 -21 22 -23 23 33 25 30 -28 -29 -30 -31 -32 -33 35 -35 -36 -37
leaf_value=-0.030406341400955068 -0.057268957658979769 -0.060790641452787224 -0.031402216920178458 0.0043498856127931621 0.07267107551293199 0.0052037312042861822 -0.020851158706909272 0.066758314229632895 0.024855284013559534 -0.064869495932067631 0.039709871313428347 0.048894009198981632 0.065005203717370258 0.060156337050955661 -0.0032159540305820447 -0.064011597662803885 0.064513176731944302 -0.054886015479579657 -0.064247525229695582 0.066914673881042511 -0.064021122527046295 -0.060803378958306967 -0.062026004729201722 -0.0645091528530672 -0.065682475129843279 -0.06423685593861124 0.06477026348864888 -0.064827184663030724 -0.064692776791459655 -0.064743463984552205 -0.064926637563040387 -0.064951408351267267 -0.064301908588194678 -0.064102757532551138 -0.064589677063468506 -0.064344351336888289
leaf_weight=6.9140757173299781 11.240500688552855 10.175014682114123 8.7219132632017189 2.5242804363369933 4.6015437170863143 3.5022305250167873 3.6492137163877478 2.7388515174388877 6.112667649984358 12.438050001859663 4.1189028844237319 32.99248406291008 44.319309376180172 24.426086947321892 4.0855617970228195 9.463301360607149 340.54415921121836 8.9209706187248248 13.016767263412477 2.8987823650240898 150.98031756281853 8.809833958745001 13.572667896747587 11.38645586371422 15.980981260538103 87.599288314580917 9.6923321112990362 15.964939236640928 13.691519439220427 11.505661845207213 10.244768619537352 14.713896006345747 8.7038544118404442 9.4806201756000501 8.7794197499752027 8.7159259319305402
leaf_count=20 27 23 26 12 35 19 12 24 34 28 31 265 406 219 20 22 3160 22 30 25 351 21 32 26 35 202 89 36 31 26 23 33 20 22 20 20
internal_value=6.36227e-06 0.0458899 0.0566916 0.0591069 0.0148853 0.0616006 0.0384397 0.052019 -0.00714024 -0.06008 0.0626109 0.0564294 0.0581298 0.063948 0.0136095 -0.0637377 0.0642216 -0.0639245 -0.0616265 0.0704463 -0.0641213 -0.0624649 -0.0642102 -0.0634187 -0.0642993 -0.0645419 0.0652083 -0.065255 -0.0641205 -0.0640723 -0.0643091 -0.064683 -0.0645507 -0.0643245 -0.0643853 -0.0643231
internal_weight=957.227 556.589 505.103 494.928 26.4205 468.508 19.5826 15.9334 18.9201 51.4858 448.925 79.8361 77.3118 369.089 10.1982 400.638 364.97 389.398 30.7172 7.50033 358.68 18.2731 340.407 34.4397 305.967 129.79 12.4312 31.9459 176.177 162.486 97.8441 44.5717 29.8578 20.8671 21.7962 17.4198
internal_count=5447 4521 4400 4377 140 4237 144 132 80 121 4093 683 671 3410 54 926 3379 899 72 60 827 43 784 80 704 296 113 71 408 377 225 101 68 48 50 40
is_linear=0
shrinkage=0.05


Tree=18
num_leaves=63
num_cat=11
split_feature=10 10 5 11 10 10 6 6 1 10 6 6 11 10 1 1 6 5 1 7 6 7 6 1 10 1 1 1 6 7 11 1 1 6 1 6 7 1 7 6 1 1 11 1 6 6 6 6 7 7 7 1 7 6 6 7 1 6 6 7 1 1
split_gain=304.74 62.9863 29.7313 19.9982 62.5637 29.7511 12.7454 11.0139 18.9078 12.3443 9.67315 8.95237 9.99819 24.5536 10.7233 8.09135 7.32445 4.91043 5.01669 13.3164 5.8746 4.75282 9.09498 4.48308 4.28371 3.77489 3.64892 5.33897 9.90454 2.58054 11.6875 6.14156 3.44216 3.45966 2.4522 12.6108 2.42546 4.71577 2.04128 1.98491 1.93833 1.87525 19.4503 1.78231 1.72341 1.62072 1.48191 1.39794 1.37909 1.04074 0.637674 0.604642 0.456197 0.414134 0.357276 0.112589 0.105412 0.0956172 0.0361317 0.0275311 0.0234955 0.00832475
threshold=0 1 1.0000000180025095e-35 2 3 4 12.500000000000002 39.500000000000007 38.500000000000007 5 22.500000000000004 1.5000000000000002 6 7 39.500000000000007 45.500000000000007 63.500000000000007 1.0000000180025095e-35 47.500000000000007 0.77859477124183019 15.500000000000002 0.83697199810156631 31.500000000000004 22.500000000000004 8 29.500000000000004 6.5000000000000009 19.500000000000004 17.500000000000004 0.28679653679653688 9 33.500000000000007 3.5000000000000004 5.5000000000000009 25.500000000000004 15.500000000000002 0.78153409090909098 19.500000000000004 0.75642715886618339 48.500000000000007 8.5000000000000018 37.500000000000007 10 27.500000000000004 36.500000000000007 46.500000000000007 46.500000000000007 38.500000000000007 0.61326979472140775 0.67769272826681248 0.86996779388083745 57.500000000000007 0.060915275200989494 59.500000000000007 2.5000000000000004 0.072949002217294903 9.5000000000000018 23.500000000000004 25.500000000000004 0.55051020408163276 6.5000000000000009 25.500000000000004
decision_type=9 9 2 1 9 9 2 2 2 9 2 2 1 9 2 2 2 2 2 2 2 2 2 2 9 2 2 2 2 2 1 2 2 2 2 2 2 2 2 2 2 2 1 2 2 2 2 2 2 2 2 2 2 2 2 2 2 2 2 2 2 2
left_child=1 17 3 4 21 6 55 9 25 10 -6 23 54 14 26 24 34 18 29 20 -20 52 -23 -2 -8 -9 38 49 -29 30 32 40 -1 -34 47 -36 41 39 -14 -38 -32 48 -43 -11 59 -39 51 -7 -31 -28 -17 56 -3 -10 -13 -5 58 -19 -15 -22 -56 -57
right_child=11 2 -4 5 7 16 15 8 53 43 -12 12 13 46 -16 50 -18 57 19 -21 44 22 -24 -25 -26 -27 27 28 -30 36 31 -33 33 -35 35 -37 37 45 -40 -41 -42 42 -44 -45 -46 -47 -48 -49 -50 -51 -52 -53 -54 -55 60 61 -58 -59 -60 -61 -62 -63
leaf_value=-0.029394602685806598 -0.017248465975030058 0.044119572744761207 -0.064416947795381443 0.077056002054150224 0.066254764304806354 -0.042340404785394192 0.013292989668134532 -0.045050827532638782 0.064549291001391604 -0.0083647713570831981 0.0064335783666823951 0.078660204225504474 0.0023829490062130783 0.068744952672517928 0.062657618413055907 0.065846676777766844 0.029740505912006977 -0.062904491944587013 -0.023663652691614648 -0.052394743617017528 0.071240686851084964 -0.011015750235182914 0.063279056573497111 0.047075839142596707 -0.010502455634536896 -0.010828051711859719 -0.050933706584800655 0.064091558132644721 -0.022420834962369303 -0.048259075028572608 -0.032275725510035901 0.004504565580560115 -0.0040720247379834543 0.054321301406948533 0.055241692193279318 -0.032698428064884127 -0.024540193021724548 -0.032369102624396254 0.064971694182963294 0.0024407532920001185 -0.063353173963678705 0.063485543018278606 -0.06108553011931759 -0.028760775290038884 0.015709530925772444 -0.05149639271452832 0.028759837313742882 -0.018999293329583535 -0.036677828523226208 -0.02393187942296025 0.034002194058375179 0.040414053559955004 0.063233398155003881 0.037682708344220904 0.065091736492471436 0.066775937918353553 0.062715776197954251 -0.055762454825803942 0.064084999444429247 0.063929851744076727 0.062713911454053903 0.06321123081992934
leaf_weight=3.4950887709856042 7.2592462450265867 3.355686403810977 19.148819088935852 2.7390597164630872 11.700942210853102 51.677992828190327 23.127911366522312 39.734594002366066 3.9024284183979026 24.352440565824509 15.995797522366045 3.7874765545129767 2.935790427029132 11.558048225939276 6.3294476345181456 4.9337667077779761 4.9166017100214949 11.060758203268053 3.979238726198675 10.247842721641062 2.1694168969988823 7.2862118035554913 9.4774667993187887 4.3211269304156303 34.102198928594589 10.107435032725332 6.858619228005411 4.9080348238348952 10.150887019932268 76.499979831278324 7.2680830657482209 5.60971575975418 4.6089060977101308 5.6413882896304131 4.5223675146698943 41.368602581322193 23.910897389054298 22.659096963703632 2.3419100791215897 9.5347551330924016 16.202344968914986 4.3713934049010259 11.065628156065939 19.12134075909853 2.3758951500058174 21.663139320909977 3.3094363659620276 7.3239732384681693 38.713617272675037 7.4393180832266808 2.3072210997343063 2.8864213377237311 44.779023073613644 2.2679477632045746 11.840030297636984 3.2586717531085014 60.640388987958431 8.1315813809633237 6.4985465109348288 3.1685824617743492 84.757358998060226 3.2927487567067146
leaf_count=13 26 23 44 22 104 181 163 131 36 126 99 33 18 106 63 44 38 27 19 30 20 37 92 29 166 52 20 46 45 250 29 31 24 50 36 166 106 91 22 54 39 42 28 79 16 65 27 35 148 30 17 24 436 18 112 28 602 21 63 30 843 32
internal_value=5.94897e-06 -0.0169226 -0.00355401 -0.00054614 0.0107319 -0.012347 0.0121453 -0.0104798 -0.0278895 0.00174941 0.0232952 0.0476293 0.0518268 0.0424395 0.00226321 0.00590203 -0.027409 -0.0342599 -0.0337142 -0.010786 0.0256799 0.0467172 0.0309874 0.00675365 -0.000398608 -0.0381108 -0.00812038 -0.0150016 0.00577546 -0.0357165 -0.0245377 -0.0424958 0.0134549 0.0280655 -0.0327008 -0.0240323 -0.0380135 -0.0310222 0.0301559 -0.0168484 -0.0537294 -0.0421749 -0.02581 -0.0140938 0.051134 -0.0417178 0.0550722 -0.039443 -0.0443676 -0.0368845 0.0557 0.06289 0.0619009 0.0546744 0.063596 0.0685433 0.0637143 -0.0598785 0.0670678 0.066901 0.0630054 0.0649843
internal_weight=925.001 687.179 394.801 375.652 192.081 183.571 73.7616 127.183 56.0124 71.1705 27.6967 237.822 226.242 125.857 40.964 64.4711 109.81 292.377 273.185 21.941 11.6931 64.8984 16.7637 11.5804 57.2301 49.842 34.6346 29.3569 15.0589 251.244 42.8255 29.0801 13.7454 10.2503 104.893 45.891 208.419 77.7679 5.2777 33.4457 23.4704 130.651 15.437 43.4738 7.71389 44.3222 84.8928 59.002 115.214 14.2979 7.24099 81.5834 48.1347 6.17038 100.385 9.29048 78.697 19.1923 18.0566 5.338 96.5974 6.55142
internal_count=5447 3338 2205 2161 1233 928 472 645 237 408 203 2109 2054 1066 244 390 456 1133 1085 115 85 588 129 55 329 183 181 141 91 970 186 99 87 74 418 202 784 316 40 160 68 468 70 205 66 156 822 216 398 50 61 795 459 54 988 82 771 48 169 50 955 60
cat_boundaries=0 2 3 4 6 7 8 9 10 11 12 13
cat_threshold=4211344924 3 2198078976 1 134217744 3 1610612740 1342177280 1 67174402 536870916 1 1
is_linear=0
shrinkage=0.05


Tree=19
num_leaves=63
num_cat=8
split_feature=10 0 10 10 0 1 6 6 6 1 10 9 1 10 1 7 1 10 6 1 0 1 1 9 6 1 6 6 6 1 7 0 6 1 1 6 1 7 1 1 6 6 6 7 1 1 7 7 1 1 7 7 1 6 1 6 7 6 1 1 7 1
split_gain=283 160.537 39.5259 32.4712 16.4558 34.9426 13.8495 11.815 8.65425 8.32696 7.55279 6.35579 6.56395 5.932 12.1418 5.17098 4.60918 13.2821 4.13733 6.00761 8.98969 4.10387 3.87478 3.77489 10.2984 15.1316 7.45753 5.52182 3.44215 2.91247 9.81595 14.2021 8.00219 2.08043 2.90074 2.01055 7.35294 2.55291 2.19103 1.81125 1.78548 1.60319 1.55399 2.25496 9.32623 4.39005 1.51107 1.44872 0.911742 0.676078 1.22639 0.580077 1.0133 0.513444 1.45494 0.451045 0.393439 0.29859 0.2444 0.238888 0.156896 0.151298
threshold=0 19.500000000000004 1 2 18.500000000000004 43.500000000000007 14.500000000000002 52.500000000000007 1.5000000000000002 25.500000000000004 3 4 39.500000000000007 5 18.500000000000004 0.9536672629695887 16.500000000000004 6 29.500000000000004 16.500000000000004 19.500000000000004 22.500000000000004 4.5000000000000009 7 33.500000000000007 23.500000000000004 27.500000000000004 40.500000000000007 22.500000000000004 37.500000000000007 0.63525498891352561 18.500000000000004 27.500000000000004 6.5000000000000009 15.500000000000002 49.500000000000007 27.500000000000004 0.28679653679653688 19.500000000000004 15.500000000000002 63.500000000000007 11.500000000000002 5.5000000000000009 0.67769272826681248 27.500000000000004 20.500000000000004 0.091608391608391626 0.59417229729729748 58.500000000000007 11.500000000000002 0.85880398671096347 0.69104278074866321 27.500000000000004 44.500000000000007 51.500000000000007 24.500000000000004 0.70659971305595415 2.5000000000000004 11.500000000000002 25.500000000000004 0.091608391608391626 47.500000000000007
decision_type=9 2 9 9 2 2 2 2 2 2 9 1 2 9 2 2 2 9 2 2 2 2 2 1 2 2 2 2 2 2 2 2 2 2 2 2 2 2 2 2 2 2 2 2 2 2 2 2 2 2 2 2 2 2 2 2 2 2 2 2 2 2
left_child=1 3 23 29 -5 6 13 60 21 33 28 12 22 39 -15 -12 40 -18 48 20 49 -2 -10 24 -3 56 -25 -28 -7 35 31 -31 41 -9 -35 37 -37 38 58 -6 -8 -33 -24 45 -45 -44 -40 -30 57 50 -20 55 -53 54 -32 -39 -26 59 -1 -13 -4 -55
right_child=8 2 7 4 5 10 16 9 11 -11 15 18 -14 14 -16 -17 17 -19 19 -21 -22 -23 42 26 25 -27 27 -29 47 30 53 32 -34 34 -36 36 -38 51 46 -41 -42 -43 43 44 -46 -47 -48 -49 -50 -51 -52 52 -54 61 -56 -57 -58 -59 -60 -61 -62 -63
leaf_value=-0.045463355715374125 -0.016394305177043336 0.065569275974051613 0.075121094527175067 -0.063409631667739899 -0.0056645975456501843 0.027743190349249408 -0.037694755997829378 -0.026087878547799544 0.064929532649512067 0.062142876224484035 0.064616975446302682 0.083995759638158363 0.061944880984209631 -0.0071455392204081885 0.057503583333175491 -0.00090768935846496457 0.0110595148147775 -0.028438991902166734 -0.007294700970674018 0.062229626181855451 0.06217308826983247 0.045467678355695082 0.032984171928656512 -0.059383551079637921 -0.059723597668734245 0.0638481432526911 0.043283348491364143 -0.027224997002856924 -0.03928791059170339 -0.057232980594908306 -0.057054980142751871 0.066282043303314886 -0.028085286866410909 0.041718058086178643 -0.010318548973535888 0.015882056948914921 -0.062515935281735602 -0.05122828775112629 -0.0015101949051809743 -0.037501921354517569 -0.01061406703669969 0.025312845699361097 -0.038775283732258081 0.06616735158557023 -0.023819619964376981 0.020541247312942393 -0.034139804367537545 -0.0057395044727637859 0.02918033530148173 -0.017603685568476465 0.030921930930380422 -0.051966243486873079 -0.032545825593619231 -0.053550181723115986 -0.030992118707523449 -0.059002315380843412 -0.037997023868859059 0.062577619424944317 -0.057311730361987702 0.062172578980154374 0.062769173662181918 -0.063011707202697997
leaf_weight=10.918456099927427 7.2556776106357557 5.7297374382615116 2.6757883802056304 17.559553623199463 7.7404688298702267 4.9192112013697651 79.599170498549938 4.8873598128557232 2.7610529959201839 8.6224360167980176 20.767043203115467 2.9956403821706763 6.9839772507548323 17.757874339818958 12.288551539182661 3.5215208157896987 26.397809915244579 75.559367626905441 5.580157592892645 25.503246322274208 10.199417598545551 4.2520404905080795 3.7362874001264599 11.113076567649843 2.7315042912960079 4.6336125731468192 4.2442532628774634 8.0310540944337827 6.0347982645034772 12.486621081829069 14.584589108824732 3.2901048362255123 7.9703542217612258 4.8905909061431867 5.9199157208204269 5.3134008273482305 6.8421630859375 33.540448702871799 4.7719585523009327 10.564416438341139 6.5905672535300246 8.7075050026178342 8.0634194388985652 4.9936929568648321 6.800214447081089 5.0873176157474509 13.835096620023249 6.8942015767097473 2.0160048753023139 4.0199064388871202 3.3652603626251221 36.043310113251209 8.255131892859934 7.4692204222083118 8.4613588675856573 42.04987508058548 8.7859904021024686 124.58969231694937 7.2372871637344351 2.1568919345736504 65.580099001526833 9.72853074967861
leaf_count=36 26 51 23 42 39 39 294 20 26 88 193 25 72 92 108 19 175 295 31 260 105 29 32 29 7 44 34 34 23 33 40 29 36 41 31 32 17 102 24 39 33 65 32 45 32 38 57 39 16 21 28 106 30 22 34 112 34 1269 20 22 653 24
internal_value=1.57987e-05 -0.0163524 0.0315453 -0.0289357 -0.0159256 -0.0135047 -0.0209786 0.047464 0.0466993 0.0226668 0.0284435 0.0509488 0.0143603 0.00288955 0.0144769 0.0390424 -0.0271123 -0.019917 0.0549024 0.0454873 0.0270549 0.00646337 0.00835798 -0.00941407 0.00547556 -0.012453 -0.0208118 -0.00284636 -0.00503405 -0.0424738 -0.0358655 -0.0154064 0.0107491 0.000983584 0.0132224 -0.0478358 -0.0282469 -0.0493558 -0.0378291 -0.0155462 -0.035624 0.0365478 0.00291196 -0.00159235 0.014282 -0.0158289 -0.0257716 -0.0213987 0.0625469 -0.000571555 0.00708237 -0.0528904 -0.0483472 -0.0523647 -0.047486 -0.0555529 -0.0431497 0.0630654 -0.0501864 0.0748604 0.0632534 -0.0589024
internal_weight=905.905 675.545 137.845 537.7 296.195 278.635 236.498 92.5762 230.36 24.3203 42.1368 218.852 38.426 48.3513 30.0464 24.2886 188.147 101.957 180.426 48.668 23.1647 11.5077 31.442 45.2692 21.8808 16.1511 23.3884 12.2753 17.8482 241.505 72.6983 32.4546 19.968 15.6979 10.8105 168.807 12.1556 156.652 36.7628 18.3049 86.1897 11.9976 28.6809 24.9446 11.7939 13.1507 18.6071 12.929 131.758 12.9653 8.94542 119.889 44.2984 40.2437 23.0459 75.5903 11.5175 129.742 18.1557 5.15253 68.2559 17.1978
